tree
version=v4
num_class=1
num_tree_per_iteration=1
label_index=0
max_feature_idx=9
objective=regression
feature_names=Age BMI Gender Workout_Type_Cardio Workout_Type_HIIT Workout_Type_Strength Workout_Type_Yoga Professionality BPM Fat_WaterTaken_corr
feature_infos=[-1.6988927579818609:1.6687558777533134] [-1.891432416508287:3.5325616528535675] [0:1] [0:1] [0:1] [0:1] [0:1] [-1.7165327893195328:2.03121925614832] [-1.7147315740585327:1.6764334440231323] [-2.1508304166091694:1.8448311481513342]
tree_sizes=483 485 481 474 482 487 480 486 474 480 480 474 482 479 481 481 480 480 474 485 477 479 476 478 484 475 477 477 476 476 480 471 472 469 470 464 469 470 478 468 471 474 481 466 474 475 472 473 474 466 471 469 471 471 473 470 469 394 468 477 474 469 473 470 473 394 473 469 471 471 466 469 470 470 475 467 474 467 474 473 472 474 388 482 475 472 481 480 469 476 474 471 470 473 470 472 469 476 392 474 392 472 479 470 475 475 474 477 477 473 473 474 475 392 476 475 473 478 475 394 474 395 473 477 475 469 485 476 475 473 477 477 478 479 474 469 474 471 476 397 482 470 478 472 476 478 466 478 481 474 479 480 394 478 475 477 478 480 476 478 478 485 478 474 476 393 476 395 471 479 475 476 476 392 476 481 471 478 479 476 476 481 471 395 476 477 481 475 479 480 474 476 469 477 474 394 476 470 475 477 480 481 479 482 471 477 397 393 474 477 477 480 478 393 478 476 480 476 472 474 396 474 479 476 484 484 480 472 390 479 476 475 482 475 484 399 483 479 391 480 479 480 470 388 480 475 483 478 477 477 479 476 479 479 469 480 480 484 400 393 469 472 485 392 478 476 397 473 390 481 472 481 470 472 476 478 392 475 476 391 481 474 480 478 486 480 473 392 478 478 472 481 479 478 482 476 394 471 469 477 475 478 478 479 395 480 478 476 482 394 476 478 481 478 480 477 396 474 470 475 484 485 475 477 394 480 484 484 474 480 478 470 393 480 395 480 476 392 479 482 476 486 479 470 478 478 393 476 397 477 486 401 396 480 480 476 396 477 473 475 486 477 475 396 480 480 393 396 477 481 470 395 474 477 472 476 484 484 484 478 487 477 392 397 485 476 486 479 477 470 474 397 397 395 474 486 476 469 485 479 478 486 473 397 471 395 394 476 474 485 478 473 474 485 396 476 397 397 475 396

Tree=0
num_leaves=4
num_cat=0
split_feature=7 7 8
split_gain=2.53173e+07 1.32205e+07 1.55125e+06
threshold=0.61177259082604818 -0.91980907212964091 0.22302920371294024
decision_type=2 2 2
left_child=1 -1 -2
right_child=2 -3 -4
leaf_value=881.40250207730423 922.73630891689288 903.75734560848264 936.64437155131668
leaf_weight=176 88 492 71
leaf_count=176 88 492 71
internal_value=903.843 897.867 928.947
internal_weight=0 668 159
internal_count=827 668 159
is_linear=0
shrinkage=1


Tree=1
num_leaves=4
num_cat=0
split_feature=7 7 8
split_gain=2.19918e+07 1.10805e+07 1.43114e+06
threshold=0.57090162249431831 -0.91980907212964091 0.43180936574935919
decision_type=2 2 2
left_child=1 -1 -2
right_child=2 -3 -4
leaf_value=-20.869481723416936 17.421358210362428 -0.33067594722255539 30.674517754448789
leaf_weight=176 109 479 63
leaf_count=176 109 479 63
internal_value=0 -5.8495 22.2757
internal_weight=0 655 172
internal_count=827 655 172
is_linear=0
shrinkage=0.07


Tree=2
num_leaves=4
num_cat=0
split_feature=7 7 2
split_gain=1.90517e+07 9.94161e+06 667137
threshold=0.61177259082604818 -1.0526397192077626 1.0000000180025095e-35
decision_type=2 2 2
left_child=1 -1 -2
right_child=2 -3 -4
leaf_value=-21.918905604265742 25.954688184649449 -0.82596184579493881 16.855694015740532
leaf_weight=138 86 530 73
leaf_count=138 86 530 73
internal_value=0 -5.18349 21.7772
internal_weight=0 668 159
internal_count=827 668 159
is_linear=0
shrinkage=0.07


Tree=3
num_leaves=4
num_cat=0
split_feature=9 9 0
split_gain=1.1255e+07 2.71598e+06 475001
threshold=-1.2554047014387277 0.047469969361110191 0.14920710309232013
decision_type=2 2 2
left_child=2 -2 -1
right_child=1 -3 -4
leaf_value=28.232650610741153 2.1754501414706735 -6.4442460853998051 18.051814859079762
leaf_weight=47 307 430 43
leaf_count=47 307 430 43
internal_value=0 -2.85368 23.3685
internal_weight=0 737 90
internal_count=827 737 90
is_linear=0
shrinkage=0.07


Tree=4
num_leaves=4
num_cat=0
split_feature=7 7 7
split_gain=1.53946e+07 7.33072e+06 2.15535e+06
threshold=0.40741774916739892 -1.0526397192077626 1.270517801527532
decision_type=2 2 2
left_child=1 -1 -2
right_child=2 -3 -4
leaf_value=-20.160153375253948 7.1752555418014534 -1.7322239919793001 20.750895763825682
leaf_weight=138 98 453 138
leaf_count=138 98 453 138
internal_value=0 -6.03519 15.1136
internal_weight=0 591 236
internal_count=827 591 236
is_linear=0
shrinkage=0.07


Tree=5
num_leaves=4
num_cat=0
split_feature=7 7 7
split_gain=1.33236e+07 6.34927e+06 1.97465e+06
threshold=0.39720000708446651 -0.91980907212964091 1.3522597381909918
decision_type=2 2 2
left_child=1 -1 -2
right_child=2 -3 -4
leaf_value=-16.831587501085281 7.3322570614895586 -0.93075406443136399 19.982511759611871
leaf_weight=176 118 409 124
leaf_count=176 118 409 124
internal_value=0 -5.71459 13.8142
internal_weight=0 585 242
internal_count=827 585 242
is_linear=0
shrinkage=0.07


Tree=6
num_leaves=4
num_cat=0
split_feature=7 7 7
split_gain=1.15254e+07 5.60297e+06 1.6366e+06
threshold=0.40741774916739892 -1.0526397192077626 1.270517801527532
decision_type=2 2 2
left_child=1 -1 -2
right_child=2 -3 -4
leaf_value=-17.570731927476071 6.1597296838675231 -1.460107394854228 17.989392457457559
leaf_weight=138 98 453 138
leaf_count=138 98 453 138
internal_value=0 -5.22198 13.0771
internal_weight=0 591 236
internal_count=827 591 236
is_linear=0
shrinkage=0.07


Tree=7
num_leaves=4
num_cat=0
split_feature=7 7 7
split_gain=9.98198e+06 4.85438e+06 1.49518e+06
threshold=0.39720000708446651 -0.91980907212964091 1.3522597381909918
decision_type=2 2 2
left_child=1 -1 -2
right_child=2 -3 -4
leaf_value=-14.666915213208307 6.3166931348331907 -0.76339374615248379 17.324478576317912
leaf_weight=176 118 409 124
leaf_count=176 118 409 124
internal_value=0 -4.94633 11.957
internal_weight=0 585 242
internal_count=827 585 242
is_linear=0
shrinkage=0.07


Tree=8
num_leaves=4
num_cat=0
split_feature=9 8 8
split_gain=6.16244e+06 2.78923e+06 562034
threshold=-1.2554047014387277 0.39868821203708654 0.28754231333732611
decision_type=2 2 2
left_child=2 -2 -1
right_child=1 -3 -4
leaf_value=12.117128150463106 -5.3955482152986942 3.5353717273967242 23.205178000132243
leaf_weight=48 466 271 42
leaf_count=48 466 271 42
internal_value=0 -2.11159 17.2916
internal_weight=0 737 90
internal_count=827 737 90
is_linear=0
shrinkage=0.07


Tree=9
num_leaves=4
num_cat=0
split_feature=7 7 7
split_gain=8.31084e+06 4.36466e+06 949676
threshold=-0.83806713546618117 1.1785581227811401 -1.0935106875394924
decision_type=2 2 2
left_child=2 -2 -1
right_child=1 -3 -4
leaf_value=-16.037441802257447 0.72892390124818207 14.415894746290929 -6.4156605309458348
leaf_weight=123 468 151 85
leaf_count=123 468 151 85
internal_value=0 4.06775 -12.1055
internal_weight=0 619 208
internal_count=827 619 208
is_linear=0
shrinkage=0.07


Tree=10
num_leaves=4
num_cat=0
split_feature=7 7 7
split_gain=7.18805e+06 3.78425e+06 888938
threshold=-0.83806713546618117 1.270517801527532 -1.4559803662047546
decision_type=2 2 2
left_child=2 -2 -1
right_child=1 -3 -4
leaf_value=-20.493752286957534 0.85137432676281111 14.001231180826824 -8.9906412187022369
leaf_weight=41 481 138 167
leaf_count=41 481 138 167
internal_value=0 3.78301 -11.2581
internal_weight=0 619 208
internal_count=827 619 208
is_linear=0
shrinkage=0.07


Tree=11
num_leaves=4
num_cat=0
split_feature=9 8 8
split_gain=4.2572e+06 2.33889e+06 491718
threshold=-1.2554047014387277 0.39868821203708654 0.28754231333732611
decision_type=2 2 2
left_child=2 -2 -1
right_child=1 -3 -4
leaf_value=9.5321627623836207 -4.7622627010749641 3.4159639300983335 19.903437650998434
leaf_weight=48 466 271 42
leaf_count=48 466 271 42
internal_value=0 -1.75507 14.3721
internal_weight=0 737 90
internal_count=827 737 90
is_linear=0
shrinkage=0.07


Tree=12
num_leaves=4
num_cat=0
split_feature=7 7 7
split_gain=6.10548e+06 3.19127e+06 583217
threshold=-0.91980907212964091 0.57090162249431831 -1.4559803662047546
decision_type=2 2 2
left_child=2 -2 -1
right_child=1 -3 -4
leaf_value=-18.879422395287495 0.19043223958392483 11.306176005343278 -9.3468370916931729
leaf_weight=41 479 172 135
leaf_count=41 479 172 135
internal_value=0 3.12731 -11.5675
internal_weight=0 651 176
internal_count=827 651 176
is_linear=0
shrinkage=0.07


Tree=13
num_leaves=4
num_cat=0
split_feature=7 7 7
split_gain=5.28063e+06 2.78935e+06 513492
threshold=-0.91980907212964091 1.270517801527532 -1.4968513345364847
decision_type=2 2 2
left_child=2 -2 -1
right_child=1 -3 -4
leaf_value=-18.778517646789552 0.53188717948732134 11.742823306097501 -8.9753833270155727
leaf_weight=32 513 138 144
leaf_count=32 513 138 144
internal_value=0 2.9084 -10.7578
internal_weight=0 651 176
internal_count=827 651 176
is_linear=0
shrinkage=0.07


Tree=14
num_leaves=4
num_cat=0
split_feature=8 8 0
split_gain=2.59288e+06 1.1953e+06 931423
threshold=0.2649668157100678 -0.83034601807594288 0.14920710309232013
decision_type=2 2 2
left_child=1 -1 -2
right_child=2 -3 -4
leaf_value=0.58668172699709742 8.3636607303175001 -6.4053715949308927 1.0570117216096448
leaf_weight=216 169 269 173
leaf_count=216 169 269 173
internal_value=0 -3.29138 4.66761
internal_weight=0 485 342
internal_count=827 485 342
is_linear=0
shrinkage=0.07


Tree=15
num_leaves=4
num_cat=0
split_feature=7 7 0
split_gain=4.6748e+06 2.44825e+06 795700
threshold=0.39720000708446651 -1.0935106875394924 0.23134487469561707
decision_type=2 2 2
left_child=1 -1 -2
right_child=2 -3 -4
leaf_value=-12.161374801455475 11.579867563078592 -1.0484106237881388 3.4401333920672394
leaf_weight=123 141 462 101
leaf_count=123 141 462 101
internal_value=0 -3.38498 8.18271
internal_weight=0 585 242
internal_count=827 585 242
is_linear=0
shrinkage=0.07


Tree=16
num_leaves=4
num_cat=0
split_feature=7 7 7
split_gain=4.05076e+06 2.02047e+06 516192
threshold=-0.83806713546618117 1.270517801527532 -1.4559803662047546
decision_type=2 2 2
left_child=2 -2 -1
right_child=1 -3 -4
leaf_value=-15.489191581912158 0.69774798399569349 10.306292150996734 -6.7235225199974948
leaf_weight=41 481 138 167
leaf_count=41 481 138 167
internal_value=0 2.83988 -8.45137
internal_weight=0 619 208
internal_count=827 619 208
is_linear=0
shrinkage=0.07


Tree=17
num_leaves=4
num_cat=0
split_feature=7 7 7
split_gain=3.60418e+06 1.83265e+06 595875
threshold=0.37676452291860157 -1.0935106875394924 1.8421910276140696
decision_type=2 2 2
left_child=1 -1 -2
right_child=2 -3 -4
leaf_value=-10.634899594531797 5.6361554965028251 -0.99773161194822968 15.599571511885701
leaf_weight=123 218 452 34
leaf_count=123 218 452 34
internal_value=0 -3.05925 6.98043
internal_weight=0 575 252
internal_count=827 575 252
is_linear=0
shrinkage=0.07


Tree=18
num_leaves=4
num_cat=0
split_feature=9 8 8
split_gain=2.17605e+06 1.65184e+06 381372
threshold=-1.2554047014387277 0.6022530496120454 0.22302920371294024
decision_type=2 2 2
left_child=2 -2 -1
right_child=1 -3 -4
leaf_value=5.7185313073264226 -3.5933429619403396 3.4414412292412351 14.831949437459311
leaf_weight=45 492 245 45
leaf_count=45 492 245 45
internal_value=0 -1.25478 10.2752
internal_weight=0 737 90
internal_count=827 737 90
is_linear=0
shrinkage=0.07


Tree=19
num_leaves=4
num_cat=0
split_feature=0 2 2
split_gain=1.19575e+06 544741 243692
threshold=0.14920710309232013 1.0000000180025095e-35 1.0000000180025095e-35
decision_type=2 2 2
left_child=1 -1 -2
right_child=2 -3 -4
leaf_value=4.8453063312624449 -1.1559505254174949 -0.099382957068906333 -4.6642141451110719
leaf_weight=231 204 207 185
leaf_count=231 204 207 185
internal_value=0 2.50843 -2.8244
internal_weight=0 438 389
internal_count=827 438 389
is_linear=0
shrinkage=0.07


Tree=20
num_leaves=4
num_cat=0
split_feature=8 8 0
split_gain=1.91731e+06 993228 676447
threshold=0.2649668157100678 -0.83034601807594288 0.14920710309232013
decision_type=2 2 2
left_child=1 -1 -2
right_child=2 -3 -4
leaf_value=0.70478378529349961 7.1635340545304436 -5.6688988602111561 0.9367816655484239
leaf_weight=216 169 269 173
leaf_count=216 169 269 173
internal_value=0 -2.83031 4.01374
internal_weight=0 485 342
internal_count=827 485 342
is_linear=0
shrinkage=0.07


Tree=21
num_leaves=4
num_cat=0
split_feature=7 7 7
split_gain=2.99819e+06 1.42513e+06 417616
threshold=-0.83806713546618117 1.4135661906885864 -1.4968513345364847
decision_type=2 2 2
left_child=2 -2 -1
right_child=1 -3 -4
leaf_value=-14.626807019710542 0.82169643195501851 9.4004754410161944 -5.933462573200126
leaf_weight=32 502 117 176
leaf_count=32 502 117 176
internal_value=0 2.44321 -7.2709
internal_weight=0 619 208
internal_count=827 619 208
is_linear=0
shrinkage=0.07


Tree=22
num_leaves=4
num_cat=0
split_feature=7 7 7
split_gain=2.64296e+06 925860 846589
threshold=-0.072295798172746659 -1.0935106875394924 1.5716810276951996
decision_type=2 2 2
left_child=1 -1 -2
right_child=2 -3 -4
leaf_value=-9.2211539003810259 2.2191624261164464 -1.8768260947438449 10.000862873217638
leaf_weight=123 353 266 85
leaf_count=123 353 266 85
internal_value=0 -4.19907 3.72931
internal_weight=0 389 438
internal_count=827 389 438
is_linear=0
shrinkage=0.07


Tree=23
num_leaves=4
num_cat=0
split_feature=7 7 8
split_gain=2.31131e+06 1.1983e+06 905943
threshold=0.37676452291860157 -1.0935106875394924 0.6022530496120454
decision_type=2 2 2
left_child=1 -1 -2
right_child=2 -3 -4
leaf_value=-8.5756731043889278 2.434543186374333 -0.78287742898659374 11.172603743259724
leaf_weight=123 161 452 91
leaf_count=123 161 452 91
internal_value=0 -2.44986 5.58995
internal_weight=0 575 252
internal_count=827 575 252
is_linear=0
shrinkage=0.07


Tree=24
num_leaves=4
num_cat=0
split_feature=7 8 7
split_gain=2.02756e+06 1.19697e+06 679586
threshold=-0.072295798172746659 0.55633407831192028 -1.1295329501085962
decision_type=2 2 2
left_child=2 -2 -1
right_child=1 -3 -4
leaf_value=-8.2791052864491945 0.51754889069870114 8.1377825235301948 -1.8174134544579026
leaf_weight=112 280 158 277
leaf_count=112 280 158 277
internal_value=0 3.2664 -3.67785
internal_weight=0 438 389
internal_count=827 438 389
is_linear=0
shrinkage=0.07


Tree=25
num_leaves=4
num_cat=0
split_feature=7 7 8
split_gain=1.83976e+06 915783 715743
threshold=0.41763549125033139 -1.0935106875394924 0.6022530496120454
decision_type=2 2 2
left_child=1 -1 -2
right_child=2 -3 -4
leaf_value=-7.4362899359806285 2.4671257838547627 -0.65621589193006402 10.656472264528276
leaf_weight=123 151 473 80
leaf_count=123 151 473 80
internal_value=0 -2.05546 5.30326
internal_weight=0 596 231
internal_count=827 596 231
is_linear=0
shrinkage=0.07


Tree=26
num_leaves=4
num_cat=0
split_feature=9 8 8
split_gain=1.39972e+06 742003 723550
threshold=-0.020417145054739929 0.39868821203708654 0.22302920371294024
decision_type=2 2 2
left_child=2 -2 -1
right_child=1 -3 -4
leaf_value=0.45568868779700644 -4.8989513223029224 1.019510737197945 6.5937873785766694
leaf_weight=219 277 166 165
leaf_count=219 277 166 165
internal_value=0 -2.6812 3.09315
internal_weight=0 443 384
internal_count=827 443 384
is_linear=0
shrinkage=0.07


Tree=27
num_leaves=4
num_cat=0
split_feature=8 0 0
split_gain=1.15023e+06 685441 477909
threshold=0.55633407831192028 0.14920710309232013 0.14920710309232013
decision_type=2 2 2
left_child=1 -1 -2
right_child=2 -3 -4
leaf_value=0.29031721182355047 6.475024879574776 -4.7656540415122164 0.82409533951770175
leaf_weight=298 140 235 154
leaf_count=298 140 235 154
internal_value=0 -1.93886 3.51501
internal_weight=0 533 294
internal_count=827 533 294
is_linear=0
shrinkage=0.07


Tree=28
num_leaves=4
num_cat=0
split_feature=7 9 7
split_gain=1.52046e+06 961136 274408
threshold=-0.83806713546618117 0.094864290018978698 -1.4968513345364847
decision_type=2 2 2
left_child=2 -2 -1
right_child=1 -3 -4
leaf_value=-11.14055371284485 4.2713253483509961 -1.2656555616155321 -4.093676526340106
leaf_weight=32 336 283 176
leaf_count=32 336 283 176
internal_value=0 1.73988 -5.17781
internal_weight=0 619 208
internal_count=827 619 208
is_linear=0
shrinkage=0.07


Tree=29
num_leaves=4
num_cat=0
split_feature=7 7 0
split_gain=1.35535e+06 689101 497226
threshold=0.41763549125033139 -1.0935106875394924 0.23134487469561707
decision_type=2 2 2
left_child=1 -1 -2
right_child=2 -3 -4
leaf_value=-6.4318330776206851 7.2661778773630372 -0.55045150279746757 0.6660931140498112
leaf_weight=123 136 473 95
leaf_count=123 136 473 95
internal_value=0 -1.76423 4.55186
internal_weight=0 596 231
internal_count=827 596 231
is_linear=0
shrinkage=0.07


Tree=30
num_leaves=4
num_cat=0
split_feature=7 8 7
split_gain=1.19899e+06 748263 373713
threshold=-0.072295798172746659 0.55633407831192028 -1.1295329501085962
decision_type=2 2 2
left_child=2 -2 -1
right_child=1 -3 -4
leaf_value=-6.2403459529951215 0.33844431644678119 6.3634125138460833 -1.4486095220570048
leaf_weight=112 280 158 277
leaf_count=112 280 158 277
internal_value=0 2.51183 -2.82824
internal_weight=0 438 389
internal_count=827 438 389
is_linear=0
shrinkage=0.07


Tree=31
num_leaves=4
num_cat=0
split_feature=7 8 8
split_gain=1.10833e+06 603097 328559
threshold=0.53003065416258843 0.2649668157100678 1.1914342641830447
decision_type=2 2 2
left_child=1 -1 -2
right_child=2 -3 -4
leaf_value=-3.1686167277395731 3.4502177420529452 1.1916310443458233 11.34880665963696
leaf_weight=378 154 264 31
leaf_count=378 154 264 31
internal_value=0 -1.37562 4.77377
internal_weight=0 642 185
internal_count=827 642 185
is_linear=0
shrinkage=0.07


Tree=32
num_leaves=4
num_cat=0
split_feature=7 8 7
split_gain=972545 606614 215285
threshold=-0.83806713546618117 0.55633407831192028 -1.5479400449511469
decision_type=2 2 2
left_child=2 -2 -1
right_child=1 -3 -4
leaf_value=-10.23404894104004 -0.29348199256157126 4.2413458916998437 -3.3087095706563834
leaf_weight=25 389 230 183
leaf_count=25 389 230 183
internal_value=0 1.39151 -4.14108
internal_weight=0 619 208
internal_count=827 619 208
is_linear=0
shrinkage=0.07


Tree=33
num_leaves=4
num_cat=0
split_feature=7 7 8
split_gain=918977 470178 269963
threshold=0.53003065416258843 -1.0526397192077626 0.22302920371294024
decision_type=2 2 2
left_child=1 -1 -2
right_child=2 -3 -4
leaf_value=-4.8728498829156166 1.9870178396441045 -0.26135450230963114 7.376865474206431
leaf_weight=138 104 504 81
leaf_count=138 104 504 81
internal_value=0 -1.25261 4.3469
internal_weight=0 642 185
internal_count=827 642 185
is_linear=0
shrinkage=0.07


Tree=34
num_leaves=4
num_cat=0
split_feature=9 7 7
split_gain=839901 556062 227949
threshold=0.094864290018978698 -1.1190550427468235 -1.4559803662047546
decision_type=2 2 2
left_child=1 -1 -2
right_child=2 -3 -4
leaf_value=-5.2305280967463146 -8.4662065689652053 3.0899277027410736 -1.8115201401294214
leaf_weight=44 27 373 383
leaf_count=44 27 373 383
internal_value=0 2.21199 -2.24976
internal_weight=0 417 410
internal_count=827 417 410
is_linear=0
shrinkage=0.07


Tree=35
num_leaves=4
num_cat=0
split_feature=7 8 8
split_gain=746103 533347 180071
threshold=1.5716810276951996 0.2649668157100678 0.62719935178756725
decision_type=2 2 2
left_child=1 -1 -2
right_child=2 -3 -4
leaf_value=-2.2751373240181572 3.7709292455514278 1.5410633814364281 10.464410624350272
leaf_weight=438 54 304 31
leaf_count=438 54 304 31
internal_value=0 -0.711627 6.21208
internal_weight=0 742 85
internal_count=827 742 85
is_linear=0
shrinkage=0.07


Tree=36
num_leaves=4
num_cat=0
split_feature=0 9 8
split_gain=830926 663773 362933
threshold=0.14920710309232013 0.91090252647574277 0.6022530496120454
decision_type=2 2 2
left_child=1 -1 -2
right_child=2 -3 -4
leaf_value=3.5636619077350362 -4.0117796871234734 -2.951532505256961 0.40399172460379673
leaf_weight=339 243 99 146
leaf_count=339 243 99 146
internal_value=0 2.09105 -2.35445
internal_weight=0 438 389
internal_count=827 438 389
is_linear=0
shrinkage=0.07


Tree=37
num_leaves=4
num_cat=0
split_feature=7 7 7
split_gain=678434 363915 286328
threshold=-0.072295798172746659 1.8421910276140696 -0.28686838191432817
decision_type=2 2 2
left_child=2 -2 -1
right_child=1 -3 -4
leaf_value=-1.2455891904551537 1.3041143237592856 8.8446994775884296 -6.2172959331844169
leaf_weight=320 404 34 69
leaf_count=320 404 34 69
internal_value=0 1.88946 -2.12746
internal_weight=0 438 389
internal_count=827 438 389
is_linear=0
shrinkage=0.07


Tree=38
num_leaves=4
num_cat=0
split_feature=2 1 1
split_gain=513735 77641.7 19446.6
threshold=1.0000000180025095e-35 -0.68902110315349197 -0.15202916745787773
decision_type=2 2 2
left_child=1 -1 -2
right_child=2 -3 -4
leaf_value=-0.08951376756441963 -2.2451607159067892 2.1571910616773122 -1.2410395811076436
leaf_weight=97 233 338 159
leaf_count=97 233 338 159
internal_value=0 1.6562 -1.83788
internal_weight=0 435 392
internal_count=827 435 392
is_linear=0
shrinkage=0.07


Tree=39
num_leaves=4
num_cat=0
split_feature=0 7 8
split_gain=711843 545650 317328
threshold=0.14920710309232013 1.1887758648640727 0.6022530496120454
decision_type=2 2 2
left_child=1 -1 -2
right_child=2 -3 -4
leaf_value=0.7674774120227752 -3.7289250210086999 7.1619617808163181 0.40010223070236106
leaf_weight=358 243 80 146
leaf_count=358 243 80 146
internal_value=0 1.93542 -2.17921
internal_weight=0 438 389
internal_count=827 438 389
is_linear=0
shrinkage=0.07


Tree=40
num_leaves=4
num_cat=0
split_feature=0 7 8
split_gain=615673 480922 274457
threshold=0.14920710309232013 0.1369077492485288 0.6022530496120454
decision_type=2 2 2
left_child=1 -1 -2
right_child=2 -3 -4
leaf_value=-0.18352098575693818 -3.4679002675659376 4.512457769909421 0.37209501384872279
leaf_weight=253 243 185 146
leaf_count=253 243 185 146
internal_value=0 1.79994 -2.02667
internal_weight=0 438 389
internal_count=827 438 389
is_linear=0
shrinkage=0.07


Tree=41
num_leaves=4
num_cat=0
split_feature=7 9 7
split_gain=554775 441597 158609
threshold=-0.83806713546618117 0.094864290018978698 -1.5479400449511469
decision_type=2 2 2
left_child=2 -2 -1
right_child=1 -3 -4
leaf_value=-8.3574528205871594 2.7668583385366952 -0.98627004572022514 -2.4131893794262997
leaf_weight=25 336 283 183
leaf_count=25 336 283 183
internal_value=0 1.05097 -3.12764
internal_weight=0 619 208
internal_count=827 619 208
is_linear=0
shrinkage=0.07


Tree=42
num_leaves=4
num_cat=0
split_feature=0 2 2
split_gain=535931 279238 144187
threshold=0.14920710309232013 1.0000000180025095e-35 1.0000000180025095e-35
decision_type=2 2 2
left_child=1 -1 -2
right_child=2 -3 -4
leaf_value=3.3524559029394934 -0.60748435833418346 -0.18777051264537131 -3.3060648631639529
leaf_weight=231 204 207 185
leaf_count=231 204 207 185
internal_value=0 1.67934 -1.89087
internal_weight=0 438 389
internal_count=827 438 389
is_linear=0
shrinkage=0.07


Tree=43
num_leaves=4
num_cat=0
split_feature=0 9 9
split_gain=463527 440671 135729
threshold=0.14920710309232013 0.91090252647574277 -1.2554047014387277
decision_type=2 2 2
left_child=1 -1 -2
right_child=2 -3 -4
leaf_value=2.7616566400049711 1.950541500379873 -2.5468808452769967 -2.219461505282132
leaf_weight=339 43 99 346
leaf_count=339 43 99 346
internal_value=0 1.56178 -1.75851
internal_weight=0 438 389
internal_count=827 438 389
is_linear=0
shrinkage=0.07


Tree=44
num_leaves=4
num_cat=0
split_feature=8 8 9
split_gain=506987 602533 253141
threshold=0.55633407831192028 -0.84169271588325489 0.38310575844356448
decision_type=2 2 2
left_child=1 -1 -2
right_child=2 -3 -4
leaf_value=1.5975404780627418 4.1498160223816383 -3.2073931328332987 0.010620357911716137
leaf_weight=213 165 320 129
leaf_count=213 165 320 129
internal_value=0 -1.28722 2.33364
internal_weight=0 533 294
internal_count=827 533 294
is_linear=0
shrinkage=0.07


Tree=45
num_leaves=4
num_cat=0
split_feature=7 2 7
split_gain=465258 398327 106871
threshold=-1.0526397192077626 1.0000000180025095e-35 -1.5632666580755454
decision_type=2 2 2
left_child=2 -2 -1
right_child=1 -3 -4
leaf_value=-8.3079210090637208 2.3756110646540538 -0.99214302747727878 -2.8846138829909842
leaf_weight=21 355 334 117
leaf_count=21 355 334 117
internal_value=0 0.743057 -3.7099
internal_weight=0 689 138
internal_count=827 689 138
is_linear=0
shrinkage=0.07


Tree=46
num_leaves=4
num_cat=0
split_feature=8 8 0
split_gain=452824 638532 309060
threshold=0.2649668157100678 -0.83034601807594288 0.14920710309232013
decision_type=2 2 2
left_child=1 -1 -2
right_child=2 -3 -4
leaf_value=1.4589691030427263 4.0796493207068139 -3.6514578462710614 -0.12922489106655122
leaf_weight=216 169 269 173
leaf_count=216 169 269 173
internal_value=0 -1.37547 1.9506
internal_weight=0 485 342
internal_count=827 485 342
is_linear=0
shrinkage=0.07


Tree=47
num_leaves=4
num_cat=0
split_feature=8 8 9
split_gain=391648 552691 269935
threshold=0.2649668157100678 -0.84169271588325489 0.36068781936032529
decision_type=2 2 2
left_child=1 -1 -2
right_child=2 -3 -4
leaf_value=1.3911266343358539 3.5215392163869663 -3.3702847964234435 -0.45097051151451611
leaf_weight=213 195 272 147
leaf_count=213 195 272 147
internal_value=0 -1.27919 1.81406
internal_weight=0 485 342
internal_count=827 485 342
is_linear=0
shrinkage=0.07


Tree=48
num_leaves=4
num_cat=0
split_feature=7 0 7
split_gain=404577 363162 122429
threshold=-0.83806713546618117 0.14920710309232013 -1.5479400449511469
decision_type=2 2 2
left_child=2 -2 -1
right_child=1 -3 -4
leaf_value=-7.2656862812042249 2.5101249442100526 -0.88517319441196474 -2.0432105605491526
leaf_weight=25 325 294 183
leaf_count=25 325 294 183
internal_value=0 0.897495 -2.67091
internal_weight=0 619 208
internal_count=827 619 208
is_linear=0
shrinkage=0.07


Tree=49
num_leaves=4
num_cat=0
split_feature=7 7 7
split_gain=365006 257221 94547.7
threshold=1.5716810276951996 -1.1295329501085962 1.9034974801116642
decision_type=2 2 2
left_child=1 -1 -2
right_child=2 -3 -4
leaf_value=-3.5888229949772361 2.7951819870519943 0.051785715061964263 7.8618246316909799
leaf_weight=112 59 630 26
leaf_count=112 59 630 26
internal_value=0 -0.49774 4.34498
internal_weight=0 742 85
internal_count=827 742 85
is_linear=0
shrinkage=0.07


Tree=50
num_leaves=4
num_cat=0
split_feature=9 9 9
split_gain=315002 123739 110353
threshold=-0.020417145054739929 1.2760235387763341 -1.2554047014387277
decision_type=2 2 2
left_child=2 -2 -1
right_child=1 -3 -4
leaf_value=3.6121187266641197 -0.73955588969531438 -3.8427783111335811 0.81080775900965651
leaf_weight=90 367 76 294
leaf_count=90 367 76 294
internal_value=0 -1.27194 1.46737
internal_weight=0 443 384
internal_count=827 443 384
is_linear=0
shrinkage=0.07


Tree=51
num_leaves=4
num_cat=0
split_feature=0 7 7
split_gain=331032 273243 182188
threshold=0.14920710309232013 1.3675863513153905 -1.0526397192077626
decision_type=2 2 2
left_child=1 -1 -2
right_child=2 -3 -4
leaf_value=0.57683448238474022 -4.9988961668483549 5.4340281153614844 -0.83278297543389423
leaf_weight=371 61 67 328
leaf_count=371 61 67 328
internal_value=0 1.31983 -1.48608
internal_weight=0 438 389
internal_count=827 438 389
is_linear=0
shrinkage=0.07


Tree=52
num_leaves=4
num_cat=0
split_feature=7 7 0
split_gain=286898 324833 234107
threshold=-0.072295798172746659 -0.28686838191432817 -1.0828594709571335
decision_type=2 2 2
left_child=1 -1 -2
right_child=2 -3 -4
leaf_value=-0.4441789447441698 4.5509393366177884 -5.7396315058828264 0.44037552507752087
leaf_weight=320 84 69 354
leaf_count=320 84 69 354
internal_value=0 -1.38348 1.2287
internal_weight=0 389 438
internal_count=827 389 438
is_linear=0
shrinkage=0.07


Tree=53
num_leaves=4
num_cat=0
split_feature=8 8 7
split_gain=342066 380419 243366
threshold=0.55633407831192028 -0.84169271588325489 -1.0679663323321613
decision_type=2 2 2
left_child=1 -1 -2
right_child=2 -3 -4
leaf_value=1.2348609999444844 -3.1581951400041586 -2.5830694936085496 2.7160812385345068
leaf_weight=213 40 320 254
leaf_count=213 40 320 254
internal_value=0 -1.05733 1.91686
internal_weight=0 533 294
internal_count=827 533 294
is_linear=0
shrinkage=0.07


Tree=54
num_leaves=4
num_cat=0
split_feature=8 8 0
split_gain=302079 400910 215667
threshold=0.2649668157100678 -0.83034601807594288 0.23134487469561707
decision_type=2 2 2
left_child=1 -1 -2
right_child=2 -3 -4
leaf_value=1.1225137492655606 3.2706032379412786 -2.9268729754606588 -0.24890861396409253
leaf_weight=216 179 269 163
leaf_count=216 179 269 163
internal_value=0 -1.12343 1.59318
internal_weight=0 485 342
internal_count=827 485 342
is_linear=0
shrinkage=0.07


Tree=55
num_leaves=4
num_cat=0
split_feature=8 8 9
split_gain=261513 275598 182613
threshold=0.6022530496120454 -0.84169271588325489 1.2862573087418949
decision_type=2 2 2
left_child=1 -1 -2
right_child=2 -3 -4
leaf_value=1.0698448003401779 2.3219032679345668 -2.1562386163036869 -3.6346125304698944
leaf_weight=213 254 332 28
leaf_count=213 254 332 28
internal_value=0 -0.895402 1.73048
internal_weight=0 545 282
internal_count=827 545 282
is_linear=0
shrinkage=0.07


Tree=56
num_leaves=4
num_cat=0
split_feature=0 9 9
split_gain=255805 262255 67127.9
threshold=0.14920710309232013 0.91090252647574277 -1.2554047014387277
decision_type=2 2 2
left_child=1 -1 -2
right_child=2 -3 -4
leaf_value=2.0858491024621117 1.3020705510294717 -2.0093949126474788 -1.6305254109815368
leaf_weight=339 43 99 346
leaf_count=339 43 99 346
internal_value=0 1.16021 -1.30636
internal_weight=0 438 389
internal_count=827 438 389
is_linear=0
shrinkage=0.07


Tree=57
num_leaves=3
num_cat=0
split_feature=7 2
split_gain=244403 209200
threshold=1.8421910276140696 1.0000000180025095e-35
decision_type=2 2
left_child=1 -1
right_child=-2 -3
leaf_value=0.83043960245192172 5.8115951466560372 -1.4465094674521306
leaf_weight=417 34 376
leaf_count=417 34 376
internal_value=0 -0.249173
internal_weight=0 793
internal_count=827 793
is_linear=0
shrinkage=0.07


Tree=58
num_leaves=4
num_cat=0
split_feature=8 8 9
split_gain=247137 296625 83880.7
threshold=-1.5098215341567991 -1.0016996562480924 -0.62316831163766595
decision_type=2 2 2
left_child=2 -2 -1
right_child=1 -3 -4
leaf_value=-0.7597204693158468 3.316937552822961 -0.2977795317614027 -6.2470709514617928
leaf_weight=21 135 632 39
leaf_count=21 135 632 39
internal_value=0 0.338448 -4.3265
internal_weight=0 767 60
internal_count=827 767 60
is_linear=0
shrinkage=0.07


Tree=59
num_leaves=4
num_cat=0
split_feature=7 2 7
split_gain=238342 207202 99952.8
threshold=-0.83806713546618117 1.0000000180025095e-35 -1.5632666580755454
decision_type=2 2 2
left_child=2 -2 -1
right_child=1 -3 -4
leaf_value=-6.6290714295705166 1.9188476321651886 -0.6446586924721095 -1.5358011089241443
leaf_weight=21 322 297 187
leaf_count=21 322 297 187
internal_value=0 0.688862 -2.05003
internal_weight=0 619 208
internal_count=827 619 208
is_linear=0
shrinkage=0.07


Tree=60
num_leaves=4
num_cat=0
split_feature=8 8 9
split_gain=244246 288671 144630
threshold=0.2649668157100678 -0.83034601807594288 0.36068781936032529
decision_type=2 2 2
left_child=1 -1 -2
right_child=2 -3 -4
leaf_value=0.89561791096572529 2.6824141902189989 -2.5404949043652385 -0.22538172165552775
leaf_weight=216 195 269 147
leaf_count=216 195 269 147
internal_value=0 -1.01018 1.43257
internal_weight=0 485 342
internal_count=827 485 342
is_linear=0
shrinkage=0.07


Tree=61
num_leaves=4
num_cat=0
split_feature=8 8 9
split_gain=234490 422288 121012
threshold=-1.3777648806571958 -1.0016996562480924 -0.66863748697027703
decision_type=2 2 2
left_child=2 -2 -1
right_child=1 -3 -4
leaf_value=0.4102441312526835 4.5732441161674204 -0.26033822715919042 -5.0540865805413997
leaf_weight=29 103 632 63
leaf_count=29 103 632 63
internal_value=0 0.417021 -3.33163
internal_weight=0 735 92
internal_count=827 735 92
is_linear=0
shrinkage=0.07


Tree=62
num_leaves=4
num_cat=0
split_feature=8 8 7
split_gain=218916 253212 173919
threshold=0.22302920371294024 -0.83034601807594288 -1.2467768187834796
decision_type=2 2 2
left_child=1 -1 -2
right_child=2 -3 -4
leaf_value=0.78137531254095616 -3.7824840544064844 -2.4700779017029104 1.7886033187744519
leaf_weight=216 30 257 324
leaf_count=216 30 257 324
internal_value=0 -0.985271 1.31648
internal_weight=0 473 354
internal_count=827 473 354
is_linear=0
shrinkage=0.07


Tree=63
num_leaves=4
num_cat=0
split_feature=0 7 7
split_gain=223737 176660 123958
threshold=0.14920710309232013 -1.4968513345364847 -1.0526397192077626
decision_type=2 2 2
left_child=1 -1 -2
right_child=2 -3 -4
leaf_value=-5.1794718742370609 -4.1192915205681917 1.4005342373310876 -0.68285695339333008
leaf_weight=21 61 417 328
leaf_count=21 61 417 328
internal_value=0 1.08505 -1.22173
internal_weight=0 438 389
internal_count=827 438 389
is_linear=0
shrinkage=0.07


Tree=64
num_leaves=4
num_cat=0
split_feature=8 8 6
split_gain=210323 352802 34666.7
threshold=-1.3777648806571958 -1.0016996562480924 1.0000000180025095e-35
decision_type=2 2 2
left_child=2 -2 -1
right_child=1 -3 -4
leaf_value=-2.3024300741426877 4.1938623127344892 -0.22417985191780934 -5.3202221628335815
leaf_weight=66 103 632 26
leaf_count=66 103 632 26
internal_value=0 0.394947 -3.15528
internal_weight=0 735 92
internal_count=827 735 92
is_linear=0
shrinkage=0.07


Tree=65
num_leaves=3
num_cat=0
split_feature=7 2
split_gain=199408 153712
threshold=1.9034974801116642 1.0000000180025095e-35
decision_type=2 2
left_child=1 -1
right_child=-2 -3
leaf_value=0.72543547760208549 6.0331729932931761 -1.2165022068431504
leaf_weight=421 26 380
leaf_count=421 26 380
internal_value=0 -0.195833
internal_weight=0 801
internal_count=827 801
is_linear=0
shrinkage=0.07


Tree=66
num_leaves=4
num_cat=0
split_feature=8 8 8
split_gain=195525 161834 122136
threshold=0.55633407831192028 -0.84169271588325489 0.88118910789489757
decision_type=2 2 2
left_child=1 -1 -2
right_child=2 -3 -4
leaf_value=0.69566037346709508 3.7051077787081406 -1.7945271018059867 0.54687597299863899
leaf_weight=213 84 320 210
leaf_count=213 84 320 210
internal_value=0 -0.799387 1.44923
internal_weight=0 533 294
internal_count=827 533 294
is_linear=0
shrinkage=0.07


Tree=67
num_leaves=4
num_cat=0
split_feature=7 9 7
split_gain=177777 153724 93349.6
threshold=0.42785323333326392 1.2760235387763341 1.9034974801116642
decision_type=2 2 2
left_child=1 -1 -2
right_child=2 -3 -4
leaf_value=-0.23614906270238006 1.1607090603649617 -3.8167625479264697 5.6193946825311736
leaf_weight=535 200 66 26
leaf_count=535 200 66 26
internal_value=0 -0.629361 1.67366
internal_weight=0 601 226
internal_count=827 601 226
is_linear=0
shrinkage=0.07


Tree=68
num_leaves=4
num_cat=0
split_feature=0 9 0
split_gain=193871 172393 44801.6
threshold=0.14920710309232013 1.2952497382020496 1.1348603623318836
decision_type=2 2 2
left_child=1 -1 -2
right_child=2 -3 -4
leaf_value=1.4682436475650045 -0.61118741391262332 -3.1990180522342064 -2.2099886955041441
leaf_weight=395 261 43 128
leaf_count=395 261 43 128
internal_value=0 1.01004 -1.13727
internal_weight=0 438 389
internal_count=827 438 389
is_linear=0
shrinkage=0.07


Tree=69
num_leaves=4
num_cat=0
split_feature=8 8 9
split_gain=198539 297005 91129.7
threshold=-1.3777648806571958 -1.0016996562480924 -0.66863748697027703
decision_type=2 2 2
left_child=2 -2 -1
right_child=1 -3 -4
leaf_value=0.18155585161570845 3.8693135848597997 -0.18433951369174345 -4.5603467888302269
leaf_weight=29 103 632 63
leaf_count=29 103 632 63
internal_value=0 0.383723 -3.06562
internal_weight=0 735 92
internal_count=827 735 92
is_linear=0
shrinkage=0.07


Tree=70
num_leaves=4
num_cat=0
split_feature=8 8 8
split_gain=185761 157144 133472
threshold=1.1785717010498049 1.4722125530242922 -1.5098215341567991
decision_type=2 2 2
left_child=2 -2 -1
right_child=1 -3 -4
leaf_value=-3.613029474218687 4.4168882025587255 -0.4954620604299837 -0.15902450887612471
leaf_weight=60 78 54 635
leaf_count=60 78 54 635
internal_value=0 2.40729 -0.457212
internal_weight=0 132 695
internal_count=827 132 695
is_linear=0
shrinkage=0.07


Tree=71
num_leaves=4
num_cat=0
split_feature=8 8 7
split_gain=164081 186731 138131
threshold=0.22302920371294024 -0.69289728999137867 -1.2467768187834796
decision_type=2 2 2
left_child=1 -1 -2
right_child=2 -3 -4
leaf_value=0.51740873601535953 -3.4044300557573637 -2.2645667674306127 1.560490281156
leaf_weight=240 30 233 324
leaf_count=240 30 233 324
internal_value=0 -0.852994 1.13973
internal_weight=0 473 354
internal_count=827 473 354
is_linear=0
shrinkage=0.07


Tree=72
num_leaves=4
num_cat=0
split_feature=7 7 1
split_gain=151801 102649 82162.8
threshold=0.45850645958206132 -1.5632666580755454 0.76048160438851564
decision_type=2 2 2
left_child=1 -1 -2
right_child=2 -3 -4
leaf_value=-5.3746905199686692 1.0132390761181065 -0.39419049243975579 4.8063851100748245
leaf_weight=21 184 589 33
leaf_count=21 184 589 33
internal_value=0 -0.56565 1.59008
internal_weight=0 610 217
internal_count=827 610 217
is_linear=0
shrinkage=0.07


Tree=73
num_leaves=4
num_cat=0
split_feature=8 8 9
split_gain=156837 257392 76144.3
threshold=-1.3777648806571958 -1.0016996562480924 -0.66863748697027703
decision_type=2 2 2
left_child=2 -2 -1
right_child=1 -3 -4
leaf_value=0.24350458198580249 3.5858801516398646 -0.18777399825120841 -4.0910178173912897
leaf_weight=29 103 632 63
leaf_count=29 103 632 63
internal_value=0 0.341051 -2.7247
internal_weight=0 735 92
internal_count=827 735 92
is_linear=0
shrinkage=0.07


Tree=74
num_leaves=4
num_cat=0
split_feature=0 9 0
split_gain=174401 152194 38668.7
threshold=0.14920710309232013 0.36068781936032529 1.1348603623318836
decision_type=2 2 2
left_child=1 -1 -2
right_child=2 -3 -4
leaf_value=2.089519115524292 -0.58990162707037408 -0.54672309727110768 -2.0752461839932952
leaf_weight=250 261 188 128
leaf_count=250 261 188 128
internal_value=0 0.957981 -1.07865
internal_weight=0 438 389
internal_count=827 438 389
is_linear=0
shrinkage=0.07


Tree=75
num_leaves=4
num_cat=0
split_feature=8 8 8
split_gain=150460 134768 118184
threshold=1.1785717010498049 1.4722125530242922 0.90304562449455272
decision_type=2 2 2
left_child=2 -2 -1
right_child=1 -3 -4
leaf_value=-0.1084267644179515 4.0275449483898971 -0.52164241004873213 -3.1609371267280721
leaf_weight=626 78 54 69
leaf_count=626 78 54 69
internal_value=0 2.16651 -0.411482
internal_weight=0 132 695
internal_count=827 132 695
is_linear=0
shrinkage=0.07


Tree=76
num_leaves=4
num_cat=0
split_feature=0 8 8
split_gain=150718 141131 96348.8
threshold=0.14920710309232013 0.21294660121202472 -1.3057904243469236
decision_type=2 2 2
left_child=1 -1 -2
right_child=2 -3 -4
leaf_value=-0.14419401821962263 -4.2122939126229868 2.416395896019909 -0.62460743138159835
leaf_weight=261 41 177 348
leaf_count=261 41 177 348
internal_value=0 0.890565 -1.00274
internal_weight=0 438 389
internal_count=827 438 389
is_linear=0
shrinkage=0.07


Tree=77
num_leaves=4
num_cat=0
split_feature=0 9 8
split_gain=136357 161851 40522
threshold=0.80630927591869572 1.2952497382020496 1.1970135569572451
decision_type=2 2 2
left_child=1 -1 -2
right_child=2 -3 -4
leaf_value=0.9042349180773902 -1.9134629172637414 -3.0780729574723678 0.62534451510455158
leaf_weight=551 184 55 37
leaf_count=551 184 55 37
internal_value=0 0.542804 -1.48841
internal_weight=0 606 221
internal_count=827 606 221
is_linear=0
shrinkage=0.07


Tree=78
num_leaves=4
num_cat=0
split_feature=2 9 9
split_gain=124364 62337 35896.1
threshold=1.0000000180025095e-35 -2.0477078968262687 1.2760235387763341
decision_type=2 2 2
left_child=1 -1 -2
right_child=2 -3 -4
leaf_value=4.2825782140096038 -0.57575829297681402 0.61238273739089644 -2.2701521645564786
leaf_weight=24 316 411 76
leaf_count=24 316 411 76
internal_value=0 0.814876 -0.904263
internal_weight=0 435 392
internal_count=827 435 392
is_linear=0
shrinkage=0.07


Tree=79
num_leaves=4
num_cat=0
split_feature=7 7 7
split_gain=130524 200828 56593.2
threshold=-0.83806713546618117 -0.77165181192712018 -1.5632666580755454
decision_type=2 2 2
left_child=2 -2 -1
right_child=1 -3 -4
leaf_value=-4.9626202583312997 7.4099966335296639 0.27938081577743634 -1.1301284278777832
leaf_weight=21 20 599 187
leaf_count=21 20 599 187
internal_value=0 0.509772 -1.51706
internal_weight=0 619 208
internal_count=827 619 208
is_linear=0
shrinkage=0.07


Tree=80
num_leaves=4
num_cat=0
split_feature=8 8 9
split_gain=128740 144266 36281.3
threshold=-1.5098215341567991 -1.0016996562480924 -0.62316831163766595
decision_type=2 2 2
left_child=2 -2 -1
right_child=1 -3 -4
leaf_value=-0.77687880992889413 2.3214575098234196 -0.19942645953001481 -4.3857637780751944
leaf_weight=21 135 632 39
leaf_count=21 135 632 39
internal_value=0 0.244275 -3.12265
internal_weight=0 767 60
internal_count=827 767 60
is_linear=0
shrinkage=0.07


Tree=81
num_leaves=4
num_cat=0
split_feature=2 1 1
split_gain=108120 30078.2 17042.9
threshold=1.0000000180025095e-35 -0.95939466518205285 -1.38222887468783
decision_type=2 2 2
left_child=1 -1 -2
right_child=2 -3 -4
leaf_value=-0.65463207456800676 1.0055993226300117 0.999335406095751 -0.95837324271680224
leaf_weight=63 23 372 369
leaf_count=63 23 372 369
internal_value=0 0.759795 -0.84314
internal_weight=0 435 392
internal_count=827 435 392
is_linear=0
shrinkage=0.07


Tree=82
num_leaves=3
num_cat=0
split_feature=7 0
split_gain=123151 117799
threshold=1.9034974801116642 -1.0828594709571335
decision_type=2 2
left_child=1 -1
right_child=-2 -3
leaf_value=1.558599924829942 4.7412625868962364 -0.574699232715702
leaf_weight=158 26 643
leaf_count=158 26 643
internal_value=0 -0.153899
internal_weight=0 801
internal_count=827 801
is_linear=0
shrinkage=0.07


Tree=83
num_leaves=4
num_cat=0
split_feature=0 2 6
split_gain=112173 81132.7 26138.1
threshold=0.80630927591869572 1.0000000180025095e-35 1.0000000180025095e-35
decision_type=2 2 2
left_child=1 -1 -2
right_child=2 -3 -4
leaf_value=1.2555056824518886 -0.91709400135599939 -0.36726595230897274 -2.6887376811769275
leaf_weight=321 167 285 54
leaf_count=321 167 285 54
internal_value=0 0.492321 -1.34998
internal_weight=0 606 221
internal_count=827 606 221
is_linear=0
shrinkage=0.07


Tree=84
num_leaves=4
num_cat=0
split_feature=7 2 7
split_gain=114263 108713 33897.6
threshold=-1.1295329501085962 1.0000000180025095e-35 -1.5632666580755454
decision_type=2 2 2
left_child=2 -2 -1
right_child=1 -3 -4
leaf_value=-4.6139756520589197 1.1638119770610786 -0.56323323786129875 -1.4939273526118355
leaf_weight=21 368 347 91
leaf_count=21 368 347 91
internal_value=0 0.325652 -2.07894
internal_weight=0 715 112
internal_count=827 715 112
is_linear=0
shrinkage=0.07


Tree=85
num_leaves=4
num_cat=0
split_feature=8 8 8
split_gain=129517 125245 118834
threshold=0.55633407831192028 0.88118910789489757 -0.84169271588325489
decision_type=2 2 2
left_child=2 -2 -1
right_child=1 -3 -4
leaf_value=0.63051346309867828 3.4639151676495876 0.26573516802986469 -1.5033519739601764
leaf_weight=213 84 210 320
leaf_count=213 84 210 320
internal_value=0 1.1795 -0.650606
internal_weight=0 294 533
internal_count=827 294 533
is_linear=0
shrinkage=0.07


Tree=86
num_leaves=4
num_cat=0
split_feature=0 1 2
split_gain=104376 60050.8 26691.4
threshold=0.14920710309232013 -0.54632394541619578 1.0000000180025095e-35
decision_type=2 2 2
left_child=1 -1 -2
right_child=2 -3 -4
leaf_value=-0.54151174924505041 -0.28228449815336398 1.264881405539068 -1.4433517947156689
leaf_weight=127 204 311 185
leaf_count=127 204 311 185
internal_value=0 0.74111 -0.834463
internal_weight=0 438 389
internal_count=827 438 389
is_linear=0
shrinkage=0.07


Tree=87
num_leaves=4
num_cat=0
split_feature=0 1 1
split_gain=90274.5 51937.9 26683.4
threshold=0.14920710309232013 -0.54632394541619578 -0.3059918902796972
decision_type=2 2 2
left_child=1 -1 -2
right_child=2 -3 -4
leaf_value=-0.50360590679439032 -0.1214533491580807 1.1763396869724396 -1.2895191364530305
leaf_weight=127 171 311 218
leaf_count=127 171 311 218
internal_value=0 0.689232 -0.776051
internal_weight=0 438 389
internal_count=827 438 389
is_linear=0
shrinkage=0.07


Tree=88
num_leaves=4
num_cat=0
split_feature=8 8 9
split_gain=127218 310874 57147.8
threshold=-1.3057904243469236 -1.0016996562480924 -0.83645538151150423
decision_type=2 2 2
left_child=2 -2 -1
right_child=1 -3 -4
leaf_value=1.1551723496119184 4.4906841709681711 -0.1668175881846419 -2.8799362818504637
leaf_weight=21 79 632 95
leaf_count=21 79 632 95
internal_value=0 0.350683 -2.14944
internal_weight=0 711 116
internal_count=827 711 116
is_linear=0
shrinkage=0.07


Tree=89
num_leaves=4
num_cat=0
split_feature=9 1 1
split_gain=74987.9 48247.8 37096.8
threshold=-0.24396323872099879 1.3785856086926984 0.29108305920004163
decision_type=2 2 2
left_child=1 -1 -2
right_child=2 -3 -4
leaf_value=1.1022335946480435 -0.9314272598518154 -1.4858934551775456 0.43978125716510574
leaf_weight=300 354 40 133
leaf_count=300 354 40 133
internal_value=0 0.797748 -0.556949
internal_weight=0 340 487
internal_count=827 340 487
is_linear=0
shrinkage=0.07


Tree=90
num_leaves=4
num_cat=0
split_feature=8 8 0
split_gain=117756 133519 111493
threshold=0.22302920371294024 -0.69289728999137867 -1.0007216993538368
decision_type=2 2 2
left_child=1 -1 -2
right_child=2 -3 -4
leaf_value=0.43619124595696734 3.5366576180084435 -1.9162372429457857 0.36530074732696144
leaf_weight=240 67 233 287
leaf_count=240 67 233 287
internal_value=0 -0.722616 0.965529
internal_weight=0 473 354
internal_count=827 473 354
is_linear=0
shrinkage=0.07


Tree=91
num_leaves=4
num_cat=0
split_feature=8 8 1
split_gain=115647 176330 18437.9
threshold=-1.3777648806571958 -1.0016996562480924 0.52916200131963576
decision_type=2 2 2
left_child=2 -2 -1
right_child=1 -3 -4
leaf_value=-2.9951774086151275 2.9785601880017998 -0.14483874292360455 -0.84150919675827029
leaf_weight=64 103 632 28
leaf_count=64 103 632 28
internal_value=0 0.292862 -2.33971
internal_weight=0 735 92
internal_count=827 735 92
is_linear=0
shrinkage=0.07


Tree=92
num_leaves=4
num_cat=0
split_feature=8 8 1
split_gain=109944 136097 104048
threshold=1.1491728425025942 0.90304562449455272 -0.93686353501300601
decision_type=2 2 2
left_child=1 -1 -2
right_child=2 -3 -4
leaf_value=-0.060667361764731219 -2.315788331580162 -3.550642663319906 2.6630261133678643
leaf_weight=626 25 60 116
leaf_count=626 25 60 116
internal_value=0 -0.365913 1.78026
internal_weight=0 686 141
internal_count=827 686 141
is_linear=0
shrinkage=0.07


Tree=93
num_leaves=4
num_cat=0
split_feature=8 8 2
split_gain=104741 239483 16959.4
threshold=-1.3057904243469236 -1.0016996562480924 1.0000000180025095e-35
decision_type=2 2 2
left_child=2 -2 -1
right_child=1 -3 -4
leaf_value=-1.0892190917751248 3.9518706539665245 -0.13601032898443033 -2.7822672212603745
leaf_weight=57 79 632 59
leaf_count=57 79 632 59
internal_value=0 0.318199 -1.95034
internal_weight=0 711 116
internal_count=827 711 116
is_linear=0
shrinkage=0.07


Tree=94
num_leaves=4
num_cat=0
split_feature=9 1 9
split_gain=65804 44920 33232.9
threshold=-0.24396323872099879 1.3785856086926984 1.2760235387763341
decision_type=2 2 2
left_child=1 -1 -2
right_child=2 -3 -4
leaf_value=1.0410998913059633 -0.27307229884530798 -1.4561761990115047 -1.8664499414594551
leaf_weight=300 411 40 76
leaf_count=300 411 40 76
internal_value=0 0.747303 -0.521731
internal_weight=0 340 487
internal_count=827 340 487
is_linear=0
shrinkage=0.07


Tree=95
num_leaves=4
num_cat=0
split_feature=8 8 9
split_gain=105977 135500 89623.3
threshold=0.6022530496120454 0.83184549212455761 -0.22666218462054039
decision_type=2 2 2
left_child=2 -2 -1
right_child=1 -3 -4
leaf_value=0.47264717970428799 4.1501742709728715 0.32929487130906848 -1.3428288303779814
leaf_weight=232 57 225 313
leaf_count=232 57 225 313
internal_value=0 1.1016 -0.570002
internal_weight=0 282 545
internal_count=827 282 545
is_linear=0
shrinkage=0.07


Tree=96
num_leaves=4
num_cat=0
split_feature=8 8 8
split_gain=93852.1 118441 103914
threshold=1.1491728425025942 0.90304562449455272 1.4722125530242922
decision_type=2 2 2
left_child=1 -1 -2
right_child=2 -3 -4
leaf_value=-0.05331893779051762 3.1419632921085281 -3.3090458963910745 -0.76722973002327821
leaf_weight=626 87 60 54
leaf_count=626 87 60 54
internal_value=0 -0.338076 1.64483
internal_weight=0 686 141
internal_count=827 686 141
is_linear=0
shrinkage=0.07


Tree=97
num_leaves=4
num_cat=0
split_feature=8 8 0
split_gain=92449.5 117513 88170.8
threshold=0.16759078204631808 -0.69289728999137867 -1.0007216993538368
decision_type=2 2 2
left_child=1 -1 -2
right_child=2 -3 -4
leaf_value=0.40140482557689156 3.0794663204922195 -1.8464305825387282 0.30516647931448249
leaf_weight=240 69 217 301
leaf_count=240 69 217 301
internal_value=0 -0.665948 0.822536
internal_weight=0 457 370
internal_count=827 457 370
is_linear=0
shrinkage=0.07


Tree=98
num_leaves=3
num_cat=0
split_feature=7 8
split_gain=94531.3 89383.9
threshold=1.9034974801116642 -1.5098215341567991
decision_type=2 2
left_child=1 -1
right_child=-2 -3
leaf_value=-2.8581601064855402 4.1539633350647414 0.065946058778956179
leaf_weight=55 26 746
leaf_count=55 26 746
internal_value=0 -0.134835
internal_weight=0 801
internal_count=827 801
is_linear=0
shrinkage=0.07


Tree=99
num_leaves=4
num_cat=0
split_feature=7 8 1
split_gain=90574.3 101803 55038.5
threshold=-1.1295329501085962 0.55633407831192028 0.026717798549893073
decision_type=2 2 2
left_child=2 -2 -1
right_child=1 -3 -4
leaf_value=-3.194794249632396 -0.33765367063182189 1.4015997670856559 -0.05912882710496585
leaf_weight=64 457 258 48
leaf_count=64 457 258 48
internal_value=0 0.289937 -1.85094
internal_weight=0 715 112
internal_count=827 715 112
is_linear=0
shrinkage=0.07


Tree=100
num_leaves=3
num_cat=0
split_feature=9 9
split_gain=55396.6 43252
threshold=-2.0477078968262687 1.2760235387763341
decision_type=2 2
left_child=-1 -2
right_child=1 -3
leaf_value=3.3138967390855156 0.067059548300430899 -1.6879712056005864
leaf_weight=24 727 76
leaf_count=24 727 76
internal_value=0 -0.0990455
internal_weight=0 803
internal_count=827 803
is_linear=0
shrinkage=0.07


Tree=101
num_leaves=4
num_cat=0
split_feature=7 7 7
split_gain=82764.2 60295.8 41174.7
threshold=0.45850645958206132 -1.5632666580755454 1.9034974801116642
decision_type=2 2 2
left_child=1 -1 -2
right_child=2 -3 -4
leaf_value=-4.1034078025817875 0.8183340225450656 -0.2862583171549698 3.7875350831105163
leaf_weight=21 191 589 26
leaf_count=21 191 589 26
internal_value=0 -0.417668 1.17409
internal_weight=0 610 217
internal_count=827 610 217
is_linear=0
shrinkage=0.07


Tree=102
num_leaves=4
num_cat=0
split_feature=2 9 9
split_gain=49617.7 31319.6 18590.4
threshold=1.0000000180025095e-35 -2.0477078968262687 0.67327237219340785
decision_type=2 2 2
left_child=1 -1 -2
right_child=2 -3 -4
leaf_value=2.972679527997971 -1.1969053767927706 0.37117828692687982 -0.19979836685264984
leaf_weight=24 146 411 246
leaf_count=24 146 411 246
internal_value=0 0.514709 -0.57117
internal_weight=0 435 392
internal_count=827 435 392
is_linear=0
shrinkage=0.07


Tree=103
num_leaves=4
num_cat=0
split_feature=8 8 0
split_gain=79819 218424 38473.1
threshold=-1.3057904243469236 -1.0016996562480924 -0.17934398332086762
decision_type=2 2 2
left_child=2 -2 -1
right_child=1 -3 -4
leaf_value=-0.53329683275686368 3.7480046654049359 -0.1560039984972417 -3.092455433764548
leaf_weight=63 79 632 53
leaf_count=63 79 632 53
internal_value=0 0.277775 -1.70257
internal_weight=0 711 116
internal_count=827 711 116
is_linear=0
shrinkage=0.07


Tree=104
num_leaves=4
num_cat=0
split_feature=8 8 9
split_gain=72412.9 345549 22448.5
threshold=-1.1854684948921201 -1.0663185715675352 -0.83645538151150423
decision_type=2 2 2
left_child=2 -2 -1
right_child=1 -3 -4
leaf_value=0.57811706003935448 6.975639013714261 -0.070636839351661429 -1.8075839867966235
leaf_weight=23 36 647 121
leaf_count=23 36 647 121
internal_value=0 0.300763 -1.42653
internal_weight=0 683 144
internal_count=827 683 144
is_linear=0
shrinkage=0.07


Tree=105
num_leaves=4
num_cat=0
split_feature=7 7 7
split_gain=74769.2 278461 161485
threshold=-0.031424829841016792 -0.28686838191432817 0.10114565195826515
decision_type=2 2 2
left_child=1 -1 -2
right_child=2 -3 -4
leaf_value=0.22947032485716048 4.6093968252605864 -4.411171944548812 0.17657760504098227
leaf_weight=320 45 79 383
leaf_count=320 45 79 383
internal_value=0 -0.689354 0.642645
internal_weight=0 399 428
internal_count=827 399 428
is_linear=0
shrinkage=0.07


Tree=106
num_leaves=4
num_cat=0
split_feature=0 8 8
split_gain=73907.1 77526.2 62417.1
threshold=0.14920710309232013 1.2623440027236941 1.4722125530242922
decision_type=2 2 2
left_child=1 -1 -2
right_child=2 -3 -4
leaf_value=0.25259342355860609 -0.47990427396580826 2.9611499745051071 -4.2393192519312324
leaf_weight=378 366 60 23
leaf_count=378 366 60 23
internal_value=0 0.623629 -0.702183
internal_weight=0 438 389
internal_count=827 438 389
is_linear=0
shrinkage=0.07


Tree=107
num_leaves=4
num_cat=0
split_feature=7 7 1
split_gain=73551.3 165724 33785
threshold=-0.83806713546618117 -0.77165181192712018 -0.15202916745787773
decision_type=2 2 2
left_child=2 -2 -1
right_child=1 -3 -4
leaf_value=-2.0224112327347199 6.6508865556716925 0.17338289720632094 -0.23806705699383635
leaf_weight=105 20 599 103
leaf_count=105 20 599 103
internal_value=0 0.382672 -1.13882
internal_weight=0 619 208
internal_count=827 619 208
is_linear=0
shrinkage=0.07


Tree=108
num_leaves=4
num_cat=0
split_feature=8 8 0
split_gain=68830.3 99693.8 71464.9
threshold=0.16759078204631808 -0.69289728999137867 -1.0007216993538368
decision_type=2 2 2
left_child=1 -1 -2
right_child=2 -3 -4
leaf_value=0.4084849801845849 2.7416279750630479 -1.6619172901299692 0.24394461566625641
leaf_weight=240 69 217 301
leaf_count=240 69 217 301
internal_value=0 -0.574616 0.709729
internal_weight=0 457 370
internal_count=827 457 370
is_linear=0
shrinkage=0.07


Tree=109
num_leaves=4
num_cat=0
split_feature=7 9 1
split_gain=70222.4 58437.5 46112.9
threshold=0.45850645958206132 1.2760235387763341 0.71241519336121606
decision_type=2 2 2
left_child=1 -1 -2
right_child=2 -3 -4
leaf_value=-0.14607843507255894 0.62639568704926518 -2.3517324993646507 3.369538846967949
leaf_weight=544 181 66 36
leaf_count=544 181 66 36
internal_value=0 -0.384723 1.08148
internal_weight=0 610 217
internal_count=827 610 217
is_linear=0
shrinkage=0.07


Tree=110
num_leaves=4
num_cat=0
split_feature=8 8 0
split_gain=66554.1 71565.5 14935
threshold=-1.5098215341567991 -0.84169271588325489 -0.097206211717570698
decision_type=2 2 2
left_child=2 -2 -1
right_child=1 -3 -4
leaf_value=-1.3434612885945376 1.5301713568166972 -0.16189629122396443 -3.5978036904335027
leaf_weight=36 153 614 24
leaf_count=36 153 614 24
internal_value=0 0.175635 -2.2452
internal_weight=0 767 60
internal_count=827 767 60
is_linear=0
shrinkage=0.07


Tree=111
num_leaves=4
num_cat=0
split_feature=8 8 9
split_gain=64507.9 284579 18043.8
threshold=-1.1854684948921201 -1.0016996562480924 -0.15560858437402611
decision_type=2 2 2
left_child=2 -2 -1
right_child=1 -3 -4
leaf_value=-0.47035568865016109 5.3138098747823763 -0.12202493555466587 -2.0472722673490646
leaf_weight=64 51 632 80
leaf_count=64 51 632 80
internal_value=0 0.283872 -1.34642
internal_weight=0 683 144
internal_count=827 683 144
is_linear=0
shrinkage=0.07


Tree=112
num_leaves=4
num_cat=0
split_feature=0 7 7
split_gain=64913.9 70989.5 25227.4
threshold=1.1348603623318836 -1.5172868187023496 -0.98111552462723572
decision_type=2 2 2
left_child=1 -1 -2
right_child=2 -3 -4
leaf_value=-3.3974387961387635 -3.548979230600855 0.40124898552319777 -0.98932687735557567
leaf_weight=25 23 674 105
leaf_count=25 23 674 105
internal_value=0 0.265387 -1.44926
internal_weight=0 699 128
internal_count=827 699 128
is_linear=0
shrinkage=0.07


Tree=113
num_leaves=3
num_cat=0
split_feature=7 8
split_gain=63781 54691.4
threshold=1.9034974801116642 -1.1854684948921201
decision_type=2 2
left_child=1 -1
right_child=-2 -3
leaf_value=-1.3954835434048265 3.4120916853501253 0.14966351025746213
leaf_weight=135 26 666
leaf_count=135 26 666
internal_value=0 -0.110755
internal_weight=0 801
internal_count=827 801
is_linear=0
shrinkage=0.07


Tree=114
num_leaves=4
num_cat=0
split_feature=8 8 9
split_gain=59537.1 85762.8 64945
threshold=0.16759078204631808 -0.69289728999137867 0.36068781936032529
decision_type=2 2 2
left_child=1 -1 -2
right_child=2 -3 -4
leaf_value=0.37741036221493657 1.460707644779446 -1.5428941787250583 -0.4141801924513111
leaf_weight=240 212 217 158
leaf_count=240 212 217 158
internal_value=0 -0.534419 0.66008
internal_weight=0 457 370
internal_count=827 457 370
is_linear=0
shrinkage=0.07


Tree=115
num_leaves=4
num_cat=0
split_feature=0 9 1
split_gain=58282.9 60804.2 28669
threshold=0.14920710309232013 0.91090252647574277 -1.0555274872366522
decision_type=2 2 2
left_child=1 -1 -2
right_child=2 -3 -4
leaf_value=0.99950392517104625 0.75652998982057462 -0.97239362648039163 -0.88522850555564292
leaf_weight=339 62 99 327
leaf_count=339 62 99 327
internal_value=0 0.553801 -0.62356
internal_weight=0 438 389
internal_count=827 438 389
is_linear=0
shrinkage=0.07


Tree=116
num_leaves=4
num_cat=0
split_feature=7 8 9
split_gain=55348 74561.5 28277.3
threshold=-1.1295329501085962 0.55633407831192028 0.71554980786849587
decision_type=2 2 2
left_child=2 -2 -1
right_child=1 -3 -4
leaf_value=-2.1657781437680694 -0.31045053387757726 1.1780208864449995 0.27402990518194259
leaf_weight=79 457 258 33
leaf_count=79 457 258 33
internal_value=0 0.226648 -1.44691
internal_weight=0 715 112
internal_count=827 715 112
is_linear=0
shrinkage=0.07


Tree=117
num_leaves=4
num_cat=0
split_feature=7 8 7
split_gain=53608.1 72581.3 60671.8
threshold=0.45850645958206132 -1.4442170262336729 -0.31211358347399981
decision_type=2 2 2
left_child=2 -2 -1
right_child=1 -3 -4
leaf_value=0.33502341888492421 -2.2513278015454614 1.4576882433178113 -1.0622876814729931
leaf_weight=317 30 187 293
leaf_count=317 30 187 293
internal_value=0 0.944921 -0.336144
internal_weight=0 217 610
internal_count=827 217 610
is_linear=0
shrinkage=0.07


Tree=118
num_leaves=4
num_cat=0
split_feature=0 9 9
split_gain=52278.7 59099.7 57066.5
threshold=1.1348603623318836 0.36068781936032529 0.93205387122671646
decision_type=2 2 2
left_child=1 -1 -2
right_child=2 -3 -4
leaf_value=0.79628148905671492 -2.010616614921735 -0.50413463864425823 1.7761751135438681
leaf_weight=399 104 300 24
leaf_count=399 104 300 24
internal_value=0 0.238163 -1.30059
internal_weight=0 699 128
internal_count=827 699 128
is_linear=0
shrinkage=0.07


Tree=119
num_leaves=3
num_cat=0
split_feature=7 0
split_gain=50423.8 48947.1
threshold=1.9034974801116642 -1.0828594709571335
decision_type=2 2
left_child=1 -1
right_child=-2 -3
leaf_value=1.005404077464644 3.0338397954060485 -0.36972578924485305
leaf_weight=158 26 643
leaf_count=158 26 643
internal_value=0 -0.0984767
internal_weight=0 801
internal_count=827 801
is_linear=0
shrinkage=0.07


Tree=120
num_leaves=4
num_cat=0
split_feature=7 8 1
split_gain=48716.4 63598.4 38585
threshold=-1.1295329501085962 0.55633407831192028 0.026717798549893073
decision_type=2 2 2
left_child=2 -2 -1
right_child=1 -3 -4
leaf_value=-2.4826566717401151 -0.28340657456828938 1.0912877581147262 0.14280390905837217
leaf_weight=64 457 258 48
leaf_count=64 457 258 48
internal_value=0 0.212637 -1.35746
internal_weight=0 715 112
internal_count=827 715 112
is_linear=0
shrinkage=0.07


Tree=121
num_leaves=3
num_cat=0
split_feature=7 7
split_gain=44671.2 40713.4
threshold=-1.5632666580755454 1.9034974801116642
decision_type=2 2
left_child=-1 -2
right_child=1 -3
leaf_value=-3.1872543875376387 -0.0077892768605827148 2.8079995514796332
leaf_weight=21 780 26
leaf_count=21 780 26
internal_value=0 0.0830426
internal_weight=0 806
internal_count=827 806
is_linear=0
shrinkage=0.07


Tree=122
num_leaves=4
num_cat=0
split_feature=0 8 9
split_gain=45900.3 55244.9 51816.3
threshold=0.14920710309232013 1.4722125530242922 1.2952497382020496
decision_type=2 2 2
left_child=2 -2 -1
right_child=1 -3 -4
leaf_value=0.74266884997826599 -0.34425096479320871 -3.881084245287854 -1.8161257884668751
leaf_weight=395 366 23 43
leaf_count=395 366 23 43
internal_value=0 -0.55337 0.491463
internal_weight=0 389 438
internal_count=827 389 438
is_linear=0
shrinkage=0.07


Tree=123
num_leaves=4
num_cat=0
split_feature=2 1 1
split_gain=31222.2 21127.9 18759.3
threshold=1.0000000180025095e-35 1.6609757734780841 -1.38222887468783
decision_type=2 2 2
left_child=1 -1 -2
right_child=2 -3 -4
leaf_value=0.57808739261807329 1.4865191473131594 -0.99338211980271851 -0.57398072000300182
leaf_weight=388 23 47 369
leaf_count=388 23 47 369
internal_value=0 0.408296 -0.453084
internal_weight=0 435 392
internal_count=827 435 392
is_linear=0
shrinkage=0.07


Tree=124
num_leaves=4
num_cat=0
split_feature=8 8 7
split_gain=46949.1 64286.3 16701.9
threshold=-1.5098215341567991 -0.84169271588325489 -0.25621515566553071
decision_type=2 2 2
left_child=2 -2 -1
right_child=1 -3 -4
leaf_value=-0.23407710313797001 1.431317380394032 -0.17238994972058347 -2.7115647557973861
leaf_weight=20 153 614 40
leaf_count=20 153 614 40
internal_value=0 0.147515 -1.88574
internal_weight=0 767 60
internal_count=827 767 60
is_linear=0
shrinkage=0.07


Tree=125
num_leaves=4
num_cat=0
split_feature=8 8 8
split_gain=47458 106453 81483.8
threshold=1.1785717010498049 0.90304562449455272 1.4088109135627749
decision_type=2 2 2
left_child=1 -1 -2
right_child=2 -3 -4
leaf_value=0.056524253627136589 2.9559499808333136 -2.8405306217117587 -0.52242819825808218
leaf_weight=626 66 69 66
leaf_count=626 66 69 66
internal_value=0 -0.231097 1.21676
internal_weight=0 695 132
internal_count=827 695 132
is_linear=0
shrinkage=0.07


Tree=126
num_leaves=4
num_cat=0
split_feature=2 9 3
split_gain=27036.4 22195.2 21350
threshold=1.0000000180025095e-35 0.67327237219340785 1.0000000180025095e-35
decision_type=2 2 2
left_child=2 -2 -1
right_child=1 -3 -4
leaf_value=0.096374902682024657 -1.1053353489261786 -0.015837783353115486 1.2280443156367049
leaf_weight=326 146 246 109
leaf_count=326 146 246 109
internal_value=0 -0.42162 0.379943
internal_weight=0 392 435
internal_count=827 392 435
is_linear=0
shrinkage=0.07


Tree=127
num_leaves=4
num_cat=0
split_feature=7 7 9
split_gain=42851.1 150456 30953.9
threshold=-0.83806713546618117 -0.31211358347399981 0.7091410747265906
decision_type=2 2 2
left_child=2 -2 -1
right_child=1 -3 -4
leaf_value=-1.523927150221954 2.6527262929601405 -0.2124414403269104 0.24457689155231824
leaf_weight=131 109 510 77
leaf_count=131 109 510 77
internal_value=0 0.292087 -0.869241
internal_weight=0 619 208
internal_count=827 619 208
is_linear=0
shrinkage=0.07


Tree=128
num_leaves=4
num_cat=0
split_feature=0 9 9
split_gain=41541.8 50955.6 29616.4
threshold=0.80630927591869572 1.2952497382020496 0.93205387122671646
decision_type=2 2 2
left_child=1 -1 -2
right_child=2 -3 -4
leaf_value=0.50240204526730114 -1.2483794471494465 -1.7320606577951803 0.71686379656195642
leaf_weight=551 173 55 48
leaf_count=551 173 55 48
internal_value=0 0.299604 -0.821539
internal_weight=0 606 221
internal_count=827 606 221
is_linear=0
shrinkage=0.07


Tree=129
num_leaves=4
num_cat=0
split_feature=8 8 0
split_gain=44987.3 237837 23899.1
threshold=-1.1854684948921201 -1.0016996562480924 1.1348603623318836
decision_type=2 2 2
left_child=2 -2 -1
right_child=1 -3 -4
leaf_value=-0.76222666900484792 4.8353991642886518 -0.13400679080481817 -3.3698482294082646
leaf_weight=124 51 632 20
leaf_count=124 51 632 20
internal_value=0 0.237062 -1.1244
internal_weight=0 683 144
internal_count=827 683 144
is_linear=0
shrinkage=0.07


Tree=130
num_leaves=4
num_cat=0
split_feature=7 7 7
split_gain=43874.8 266479 116738
threshold=-0.072295798172746659 -0.28686838191432817 0.10114565195826515
decision_type=2 2 2
left_child=1 -1 -2
right_child=2 -3 -4
leaf_value=0.30973145779268818 3.4961741610548716 -4.4865474668101992 0.047436344609559367
leaf_weight=320 55 69 383
leaf_count=320 55 69 383
internal_value=0 -0.541022 0.480497
internal_weight=0 389 438
internal_count=827 389 438
is_linear=0
shrinkage=0.07


Tree=131
num_leaves=4
num_cat=0
split_feature=7 7 0
split_gain=42309.7 47783.8 42396
threshold=0.45850645958206132 -0.31211358347399981 -1.0007216993538368
decision_type=2 2 2
left_child=1 -1 -2
right_child=2 -3 -4
leaf_value=0.29700368872059257 2.7259291828196988 -0.94304817379588979 0.33198954610448139
leaf_weight=317 46 293 171
leaf_count=317 46 293 171
internal_value=0 -0.298628 0.839461
internal_weight=0 610 217
internal_count=827 610 217
is_linear=0
shrinkage=0.07


Tree=132
num_leaves=4
num_cat=0
split_feature=8 8 8
split_gain=45016.7 68389.5 51147.9
threshold=0.16759078204631808 -0.69289728999137867 0.88118910789489757
decision_type=2 2 2
left_child=1 -1 -2
right_child=2 -3 -4
leaf_value=0.3495500070850055 1.516859228346497 -1.3652574541431763 -0.14442198008298873
leaf_weight=240 160 217 210
leaf_count=240 160 217 210
internal_value=0 -0.464702 0.57397
internal_weight=0 457 370
internal_count=827 457 370
is_linear=0
shrinkage=0.07


Tree=133
num_leaves=4
num_cat=0
split_feature=0 9 1
split_gain=34807.7 38908.7 22449.5
threshold=0.14920710309232013 0.91090252647574277 -0.3059918902796972
decision_type=2 2 2
left_child=1 -1 -2
right_child=2 -3 -4
leaf_value=0.7845125727544493 0.11853537067335253 -0.79288496796229879 -0.95286102868411526
leaf_weight=339 171 99 218
leaf_count=339 171 99 218
internal_value=0 0.427978 -0.481887
internal_weight=0 438 389
internal_count=827 438 389
is_linear=0
shrinkage=0.07


Tree=134
num_leaves=4
num_cat=0
split_feature=7 7 9
split_gain=39457.2 126536 28706
threshold=-0.83806713546618117 -0.77165181192712018 0.7091410747265906
decision_type=2 2 2
left_child=2 -2 -1
right_child=1 -3 -4
leaf_value=-1.4645744712753153 5.7574851799011233 0.097403305815983693 0.23850613247264518
leaf_weight=131 20 599 77
leaf_count=131 20 599 77
internal_value=0 0.280282 -0.834107
internal_weight=0 619 208
internal_count=827 619 208
is_linear=0
shrinkage=0.07


Tree=135
num_leaves=4
num_cat=0
split_feature=8 8 8
split_gain=44074.2 105649 59628.8
threshold=1.26814740896225 1.4088109135627749 0.90304562449455272
decision_type=2 2 2
left_child=2 -2 -1
right_child=1 -3 -4
leaf_value=0.047651416428220544 4.0630453411738081 -0.42797925238356449 -1.8519468353352242
leaf_weight=626 42 66 93
leaf_count=626 42 66 93
internal_value=0 1.31853 -0.198055
internal_weight=0 108 719
internal_count=827 108 719
is_linear=0
shrinkage=0.07


Tree=136
num_leaves=4
num_cat=0
split_feature=8 8 0
split_gain=42081.9 202704 17935.5
threshold=-1.1854684948921201 -1.0663185715675352 1.1348603623318836
decision_type=2 2 2
left_child=2 -2 -1
right_child=1 -3 -4
leaf_value=-0.77373689468829865 5.341622273921967 -0.055179245348766427 -3.0327025322914127
leaf_weight=124 36 647 20
leaf_count=124 36 647 20
internal_value=0 0.229279 -1.08748
internal_weight=0 683 144
internal_count=827 683 144
is_linear=0
shrinkage=0.07


Tree=137
num_leaves=4
num_cat=0
split_feature=8 8 1
split_gain=40729.9 109130 42255.7
threshold=0.6022530496120454 0.83184549212455761 1.3785856086926984
decision_type=2 2 2
left_child=2 -2 -1
right_child=1 -3 -4
leaf_value=-0.168457360868454 3.418818659071337 -0.01016287438372771 -2.4079408427344431
leaf_weight=500 57 225 45
leaf_count=500 57 225 45
internal_value=0 0.682929 -0.353369
internal_weight=0 282 545
internal_count=827 282 545
is_linear=0
shrinkage=0.07


Tree=138
num_leaves=4
num_cat=0
split_feature=7 7 7
split_gain=36753.1 193061 130566
threshold=-0.031424829841016792 -0.28686838191432817 0.10114565195826515
decision_type=2 2 2
left_child=1 -1 -2
right_child=2 -3 -4
leaf_value=0.2817519167205319 4.0174048720453355 -3.5823061887976491 0.031483963170227433
leaf_weight=320 45 79 383
leaf_count=320 45 79 383
internal_value=0 -0.483312 0.450564
internal_weight=0 399 428
internal_count=827 399 428
is_linear=0
shrinkage=0.07


Tree=139
num_leaves=3
num_cat=0
split_feature=7 0
split_gain=36400.6 37068.1
threshold=-1.5632666580755454 0.14920710309232013
decision_type=2 2
left_child=-1 -2
right_child=1 -3
leaf_value=-2.8771163129806521 0.52779699440868966 -0.42268461806427998
leaf_weight=21 422 384
leaf_count=21 422 384
internal_value=0 0.0749621
internal_weight=0 806
internal_count=827 806
is_linear=0
shrinkage=0.07


Tree=140
num_leaves=4
num_cat=0
split_feature=2 3 1
split_gain=27326.9 19038.7 16007.6
threshold=1.0000000180025095e-35 1.0000000180025095e-35 -1.0555274872366522
decision_type=2 2 2
left_child=1 -1 -2
right_child=2 -3 -4
leaf_value=0.11419982867555387 0.63882825132143706 1.182858240177872 -0.6121668381152211
leaf_weight=326 59 109 333
leaf_count=326 59 109 333
internal_value=0 0.381979 -0.423879
internal_weight=0 435 392
internal_count=827 435 392
is_linear=0
shrinkage=0.07


Tree=141
num_leaves=4
num_cat=0
split_feature=8 8 8
split_gain=39258.5 99621 55916.7
threshold=1.1491728425025942 0.90304562449455272 1.6038507223129275
decision_type=2 2 2
left_child=1 -1 -2
right_child=2 -3 -4
leaf_value=0.042500931698555192 1.6469582449458542 -2.943382409413656 -2.2684581422805792
leaf_weight=626 120 60 21
leaf_count=626 120 60 21
internal_value=0 -0.218655 1.06381
internal_weight=0 686 141
internal_count=827 686 141
is_linear=0
shrinkage=0.07


Tree=142
num_leaves=4
num_cat=0
split_feature=8 8 0
split_gain=36356.4 57480.6 41071.4
threshold=0.16759078204631808 -0.69289728999137867 -1.0007216993538368
decision_type=2 2 2
left_child=1 -1 -2
right_child=2 -3 -4
leaf_value=0.32887415497253342 2.0561848920756494 -1.2432297656937474 0.16270532535259113
leaf_weight=240 69 217 301
leaf_count=240 69 217 301
internal_value=0 -0.417617 0.515814
internal_weight=0 457 370
internal_count=827 457 370
is_linear=0
shrinkage=0.07


Tree=143
num_leaves=4
num_cat=0
split_feature=8 8 9
split_gain=36854.5 101946 24268.4
threshold=-1.3057904243469236 -1.0016996562480924 -0.83645538151150423
decision_type=2 2 2
left_child=2 -2 -1
right_child=1 -3 -4
leaf_value=0.99658352851867682 2.5595380313336098 -0.10759957986930976 -1.6329350626468659
leaf_weight=21 79 632 95
leaf_count=21 79 632 95
internal_value=0 0.188749 -1.1569
internal_weight=0 711 116
internal_count=827 711 116
is_linear=0
shrinkage=0.07


Tree=144
num_leaves=4
num_cat=0
split_feature=7 8 7
split_gain=36081 53537.3 41616.1
threshold=0.45850645958206132 -1.4442170262336729 -0.31211358347399981
decision_type=2 2 2
left_child=2 -2 -1
right_child=1 -3 -4
leaf_value=0.28009163062784481 -1.9698803006807963 1.2155992177314061 -0.87716618052216533
leaf_weight=317 30 187 293
leaf_count=317 30 187 293
internal_value=0 0.77521 -0.275772
internal_weight=0 217 610
internal_count=827 217 610
is_linear=0
shrinkage=0.07


Tree=145
num_leaves=4
num_cat=0
split_feature=7 7 9
split_gain=35240.3 107664 24193.6
threshold=-0.83806713546618117 -0.31211358347399981 0.7091410747265906
decision_type=2 2 2
left_child=2 -2 -1
right_child=1 -3 -4
leaf_value=-1.3670739968692645 2.2617934368714829 -0.16190944115525369 0.19642889942973854
leaf_weight=131 109 510 77
leaf_count=131 109 510 77
internal_value=0 0.264882 -0.788277
internal_weight=0 619 208
internal_count=827 619 208
is_linear=0
shrinkage=0.07


Tree=146
num_leaves=4
num_cat=0
split_feature=8 8 8
split_gain=32802.4 83595.5 49280.8
threshold=1.26814740896225 1.4088109135627749 0.90304562449455272
decision_type=2 2 2
left_child=2 -2 -1
right_child=1 -3 -4
leaf_value=0.052508836336457698 3.5788199524084732 -0.4160701362021042 -1.67441226870142
leaf_weight=626 42 66 93
leaf_count=626 42 66 93
internal_value=0 1.1375 -0.170862
internal_weight=0 108 719
internal_count=827 108 719
is_linear=0
shrinkage=0.07


Tree=147
num_leaves=4
num_cat=0
split_feature=7 7 7
split_gain=33761.7 183811 93418.3
threshold=-0.072295798172746659 -0.28686838191432817 0.10114565195826515
decision_type=2 2 2
left_child=1 -1 -2
right_child=2 -3 -4
leaf_value=0.23198364565148952 3.1192053400603212 -3.7514585399282154 0.034098112669824467
leaf_weight=320 55 69 383
leaf_count=320 55 69 383
internal_value=0 -0.474591 0.421497
internal_weight=0 389 438
internal_count=827 389 438
is_linear=0
shrinkage=0.07


Tree=148
num_leaves=4
num_cat=0
split_feature=0 6 1
split_gain=25912.7 19455.9 15240
threshold=0.80630927591869572 1.0000000180025095e-35 0.76048160438851564
decision_type=2 2 2
left_child=2 -2 -1
right_child=1 -3 -4
leaf_value=0.065826311092291562 -0.27536648470841485 -1.8038659157134871 0.95810407276361675
leaf_weight=490 167 54 116
leaf_count=490 167 54 116
internal_value=0 -0.648846 0.236625
internal_weight=0 221 606
internal_count=827 221 606
is_linear=0
shrinkage=0.07


Tree=149
num_leaves=4
num_cat=0
split_feature=7 7 7
split_gain=33162.2 194802 78573.9
threshold=0.1369077492485288 0.10114565195826515 0.21354081487052226
decision_type=2 2 2
left_child=1 -1 -2
right_child=2 -3 -4
leaf_value=-0.027305821783773537 3.0832223648071295 -6.047293887138367 0.08946522134151616
leaf_weight=444 50 28 305
leaf_count=444 50 28 305
internal_value=0 -0.384424 0.511121
internal_weight=0 472 355
internal_count=827 472 355
is_linear=0
shrinkage=0.07


Tree=150
num_leaves=4
num_cat=0
split_feature=7 7 7
split_gain=31779.8 94952.2 21983.7
threshold=-0.83806713546618117 -0.77165181192712018 -0.89426471692230969
decision_type=2 2 2
left_child=2 -2 -1
right_child=1 -3 -4
leaf_value=-0.50107512996562065 4.9961852121353152 0.093121025793639983 -2.8410555943575773
leaf_weight=186 20 599 22
leaf_count=186 20 599 22
internal_value=0 0.25154 -0.748573
internal_weight=0 619 208
internal_count=827 619 208
is_linear=0
shrinkage=0.07


Tree=151
num_leaves=4
num_cat=0
split_feature=2 9 1
split_gain=24134.5 18402 14843.2
threshold=1.0000000180025095e-35 0.75653539538445935 1.6609757734780841
decision_type=2 2 2
left_child=2 -2 -1
right_child=1 -3 -4
leaf_value=0.50128826909189683 -0.94076937963016516 0.02572199068667198 -0.81587983562591238
leaf_weight=388 172 220 47
leaf_count=388 172 220 47
internal_value=0 -0.398351 0.358974
internal_weight=0 392 435
internal_count=827 392 435
is_linear=0
shrinkage=0.07


Tree=152
num_leaves=3
num_cat=0
split_feature=7 7
split_gain=31728.1 28517.9
threshold=1.8421910276140696 -1.5632666580755454
decision_type=2 2
left_child=1 -1
right_child=-2 -3
leaf_value=-2.6349601896603905 2.0939408210796469 -0.020543815001725932
leaf_weight=21 34 772
leaf_count=21 34 772
internal_value=0 -0.089778
internal_weight=0 793
internal_count=827 793
is_linear=0
shrinkage=0.07


Tree=153
num_leaves=4
num_cat=0
split_feature=0 9 1
split_gain=23016.5 33814.4 15690.5
threshold=0.14920710309232013 0.91090252647574277 -1.0555274872366522
decision_type=2 2 2
left_child=1 -1 -2
right_child=2 -3 -4
leaf_value=0.68039457313617524 0.62912827543673988 -0.79011792399233804 -0.58543740447092263
leaf_weight=339 62 99 327
leaf_count=339 62 99 327
internal_value=0 0.348018 -0.391856
internal_weight=0 438 389
internal_count=827 438 389
is_linear=0
shrinkage=0.07


Tree=154
num_leaves=4
num_cat=0
split_feature=8 8 9
split_gain=32152.1 174897 13584.7
threshold=-1.1801114082336424 -1.0663185715675352 -0.93638616163688104
decision_type=2 2 2
left_child=2 -2 -1
right_child=1 -3 -4
leaf_value=0.75696652412414556 5.173770596186321 -0.050602176835101216 -1.2057807462187264
leaf_weight=20 33 647 127
leaf_count=20 33 647 127
internal_value=0 0.202934 -0.93874
internal_weight=0 680 147
internal_count=827 680 147
is_linear=0
shrinkage=0.07


Tree=155
num_leaves=4
num_cat=0
split_feature=0 9 9
split_gain=21442.7 49159.5 30474.4
threshold=1.1348603623318836 -0.54568072442238702 0.36068781936032529
decision_type=2 2 2
left_child=2 -2 -1
right_child=1 -3 -4
leaf_value=0.55330435603366879 -3.025953482256996 0.025183225306479828 -0.38050323107689621
leaf_weight=399 36 92 300
leaf_count=399 36 92 300
internal_value=0 -0.832949 0.152529
internal_weight=0 128 699
internal_count=827 128 699
is_linear=0
shrinkage=0.07


Tree=156
num_leaves=4
num_cat=0
split_feature=7 7 0
split_gain=28994.3 33258.5 30907.5
threshold=0.45850645958206132 -0.31211358347399981 -1.0007216993538368
decision_type=2 2 2
left_child=1 -1 -2
right_child=2 -3 -4
leaf_value=0.24971192870935435 2.3056410465810613 -0.78483635430551646 0.26163088573741983
leaf_weight=317 46 293 171
leaf_count=317 46 293 171
internal_value=0 -0.24721 0.694923
internal_weight=0 610 217
internal_count=827 610 217
is_linear=0
shrinkage=0.07


Tree=157
num_leaves=4
num_cat=0
split_feature=8 8 8
split_gain=32770.6 49461.1 38465.4
threshold=0.16759078204631808 -0.69289728999137867 0.88118910789489757
decision_type=2 2 2
left_child=1 -1 -2
right_child=2 -3 -4
leaf_value=0.29597378176761174 1.3073944101966917 -1.1623448877421119 -0.1332760466982921
leaf_weight=240 160 217 210
leaf_count=240 160 217 210
internal_value=0 -0.396488 0.489717
internal_weight=0 457 370
internal_count=827 457 370
is_linear=0
shrinkage=0.07


Tree=158
num_leaves=4
num_cat=0
split_feature=8 8 1
split_gain=30680.2 87183.7 35395.9
threshold=0.6022530496120454 0.83184549212455761 1.3785856086926984
decision_type=2 2 2
left_child=2 -2 -1
right_child=1 -3 -4
leaf_value=-0.13745290013022721 3.0380904445313575 -0.026776316405667203 -2.1871116853157684
leaf_weight=500 57 225 45
leaf_count=500 57 225 45
internal_value=0 0.592718 -0.306691
internal_weight=0 282 545
internal_count=827 282 545
is_linear=0
shrinkage=0.07


Tree=159
num_leaves=4
num_cat=0
split_feature=7 7 7
split_gain=29382.5 260325 38353.3
threshold=-0.56755713554731113 -0.31211358347399981 -0.77165181192712018
decision_type=2 2 2
left_child=2 -2 -1
right_child=1 -3 -4
leaf_value=-0.22076335064642003 5.524211204717326 -0.14730507526181494 -2.4365532477005667
leaf_weight=228 43 510 46
leaf_count=228 43 510 46
internal_value=0 0.293699 -0.592757
internal_weight=0 553 274
internal_count=827 553 274
is_linear=0
shrinkage=0.07


Tree=160
num_leaves=4
num_cat=0
split_feature=0 0 1
split_gain=18785.8 26803.4 17206
threshold=0.14920710309232013 1.0000000180025095e-35 0.45631134710638471
decision_type=2 2 2
left_child=1 -1 -2
right_child=2 -3 -4
leaf_value=0.1337390914970561 -0.63155347096574754 1.9740759082173194 0.42689845923991765
leaf_weight=395 287 43 102
leaf_count=395 287 43 102
internal_value=0 0.314411 -0.354016
internal_weight=0 438 389
internal_count=827 438 389
is_linear=0
shrinkage=0.07


Tree=161
num_leaves=4
num_cat=0
split_feature=2 9 3
split_gain=17553 19060.9 16568.8
threshold=1.0000000180025095e-35 0.75653539538445935 1.0000000180025095e-35
decision_type=2 2 2
left_child=2 -2 -1
right_child=1 -3 -4
leaf_value=0.056333553476567648 -0.89176547994100785 0.091876452917402443 1.0532669122903309
leaf_weight=326 172 220 109
leaf_count=326 172 220 109
internal_value=0 -0.339722 0.30614
internal_weight=0 392 435
internal_count=827 392 435
is_linear=0
shrinkage=0.07


Tree=162
num_leaves=4
num_cat=0
split_feature=7 7 7
split_gain=28222.6 150656 82897.2
threshold=-0.072295798172746659 -0.28686838191432817 0.10114565195826515
decision_type=2 2 2
left_child=1 -1 -2
right_child=2 -3 -4
leaf_value=0.20576894353190439 2.9266317309141163 -3.4005716730373496 0.020440302341592845
leaf_weight=320 55 69 383
leaf_count=320 55 69 383
internal_value=0 -0.433916 0.385373
internal_weight=0 389 438
internal_count=827 389 438
is_linear=0
shrinkage=0.07


Tree=163
num_leaves=4
num_cat=0
split_feature=8 8 8
split_gain=30198.2 80034.7 41116.3
threshold=1.1491728425025942 0.90304562449455272 1.6038507223129275
decision_type=2 2 2
left_child=1 -1 -2
right_child=2 -3 -4
leaf_value=0.042308600982026268 1.4330647660270335 -2.6340020945444707 -1.9244207747777304
leaf_weight=626 120 60 21
leaf_count=626 120 60 21
internal_value=0 -0.191771 0.933014
internal_weight=0 686 141
internal_count=827 686 141
is_linear=0
shrinkage=0.07


Tree=164
num_leaves=4
num_cat=0
split_feature=7 1 7
split_gain=27877.9 30021.1 29515
threshold=-1.1295329501085962 -0.05514530773097677 -0.31211358347399981
decision_type=2 2 2
left_child=1 -1 -2
right_child=2 -3 -4
leaf_value=-2.0560610239628345 0.87022719594908926 0.24930464097559454 -0.12428632102088602
leaf_weight=62 205 50 510
leaf_count=62 205 50 510
internal_value=0 -1.02688 0.160854
internal_weight=0 112 715
internal_count=827 112 715
is_linear=0
shrinkage=0.07


Tree=165
num_leaves=3
num_cat=0
split_feature=9 9
split_gain=16532 13476.2
threshold=-2.0252899577430297 1.2760235387763341
decision_type=2 2
left_child=-1 -2
right_child=1 -3
leaf_value=1.6718706095218658 0.034617719502905764 -0.94527625121176251
leaf_weight=28 723 76
leaf_count=28 723 76
internal_value=0 -0.0585887
internal_weight=0 799
internal_count=827 799
is_linear=0
shrinkage=0.07


Tree=166
num_leaves=4
num_cat=0
split_feature=8 8 0
split_gain=27732.6 151553 10740.1
threshold=-1.1801114082336424 -1.0016996562480924 1.1348603623318836
decision_type=2 2 2
left_child=2 -2 -1
right_child=1 -3 -4
leaf_value=-0.63439702673925191 3.9804358612808088 -0.099526380822298283 -2.3795912473201755
leaf_weight=127 48 632 20
leaf_count=127 48 632 20
internal_value=0 0.188471 -0.871838
internal_weight=0 680 147
internal_count=827 680 147
is_linear=0
shrinkage=0.07


Tree=167
num_leaves=3
num_cat=0
split_feature=9 1
split_gain=14526 11911.9
threshold=-2.0252899577430297 0.27080504204789962
decision_type=2 2
left_child=-1 -2
right_child=1 -3
leaf_value=1.5671552777290345 -0.24478240755701736 0.32984183898548403
leaf_weight=28 535 264
leaf_count=28 535 264
internal_value=0 -0.0549191
internal_weight=0 799
internal_count=827 799
is_linear=0
shrinkage=0.07


Tree=168
num_leaves=4
num_cat=0
split_feature=0 1 1
split_gain=16288.6 26655.3 16144.4
threshold=1.1348603623318836 0.47433625124162199 1.3785856086926984
decision_type=2 2 2
left_child=2 -2 -1
right_child=1 -3 -4
leaf_value=0.23602412915962032 -1.4070141316272995 0.772317824035883 -0.96491476887961236
leaf_weight=639 88 40 60
leaf_count=639 88 40 60
internal_value=0 -0.725973 0.132939
internal_weight=0 128 699
internal_count=827 128 699
is_linear=0
shrinkage=0.07


Tree=169
num_leaves=4
num_cat=0
split_feature=7 7 7
split_gain=27265.3 242675 31353.4
threshold=-0.54712165138144619 -0.31211358347399981 -0.77165181192712018
decision_type=2 2 2
left_child=2 -2 -1
right_child=1 -3 -4
leaf_value=-0.21669968436684525 5.6080379116229535 -0.12096481671841706 -2.1522776913404464
leaf_weight=228 39 510 50
leaf_count=228 39 510 50
internal_value=0 0.286014 -0.564825
internal_weight=0 549 278
internal_count=827 549 278
is_linear=0
shrinkage=0.07


Tree=170
num_leaves=4
num_cat=0
split_feature=7 7 7
split_gain=26908.3 163452 69855.4
threshold=0.1369077492485288 0.10114565195826515 0.21354081487052226
decision_type=2 2 2
left_child=1 -1 -2
right_child=2 -3 -4
leaf_value=-0.019161185071812022 2.8856167526245122 -5.5335039901733403 0.062835533384661205
leaf_weight=444 50 28 305
leaf_count=444 50 28 305
internal_value=0 -0.346283 0.46041
internal_weight=0 472 355
internal_count=827 472 355
is_linear=0
shrinkage=0.07


Tree=171
num_leaves=4
num_cat=0
split_feature=8 1 8
split_gain=27219.1 73322.4 68740.8
threshold=1.1491728425025942 -0.93686353501300601 0.90304562449455272
decision_type=2 2 2
left_child=2 -2 -1
right_child=1 -3 -4
leaf_value=0.034869867643466397 -2.5526782392501834 1.6268480272242674 -2.4454324746628608
leaf_weight=626 25 116 60
leaf_count=626 25 116 60
internal_value=0 0.885797 -0.182066
internal_weight=0 141 686
internal_count=827 141 686
is_linear=0
shrinkage=0.07


Tree=172
num_leaves=4
num_cat=0
split_feature=7 7 0
split_gain=25788.4 32645.6 26466.4
threshold=0.43807097541619638 0.21354081487052226 -1.0007216993538368
decision_type=2 2 2
left_child=1 -1 -2
right_child=2 -3 -4
leaf_value=-0.03174702854705725 2.1403135576455492 -1.5263094287608046 0.25455228613520214
leaf_weight=522 46 83 176
leaf_count=522 46 83 176
internal_value=0 -0.236786 0.645296
internal_weight=0 605 222
internal_count=827 605 222
is_linear=0
shrinkage=0.07


Tree=173
num_leaves=3
num_cat=0
split_feature=7 7
split_gain=24968.9 21546.1
threshold=-1.5632666580755454 1.9034974801116642
decision_type=2 2
left_child=-1 -2
right_child=1 -3
leaf_value=-2.3828824675083164 -0.0039926359233183745 2.04441494199519
leaf_weight=21 780 26
leaf_count=21 780 26
internal_value=0 0.062085
internal_weight=0 806
internal_count=827 806
is_linear=0
shrinkage=0.07


Tree=174
num_leaves=4
num_cat=0
split_feature=8 8 1
split_gain=27204.5 73936.7 29223.4
threshold=0.6022530496120454 0.83184549212455761 1.3785856086926984
decision_type=2 2 2
left_child=2 -2 -1
right_child=1 -3 -4
leaf_value=-0.13502145843684674 2.8100785664089942 -0.012356784913274977 -1.9974104267756145
leaf_weight=500 57 225 45
leaf_count=500 57 225 45
internal_value=0 0.558135 -0.288797
internal_weight=0 282 545
internal_count=827 282 545
is_linear=0
shrinkage=0.07


Tree=175
num_leaves=4
num_cat=0
split_feature=0 0 2
split_gain=14994 21729 10694.8
threshold=0.14920710309232013 1.0000000180025095e-35 1.0000000180025095e-35
decision_type=2 2 2
left_child=1 -1 -2
right_child=2 -3 -4
leaf_value=0.11821981122976619 0.033251697913396598 1.7752189563595973 -0.70170047909021382
leaf_weight=395 204 43 185
leaf_count=395 204 43 185
internal_value=0 0.280893 -0.316276
internal_weight=0 438 389
internal_count=827 438 389
is_linear=0
shrinkage=0.07


Tree=176
num_leaves=4
num_cat=0
split_feature=8 8 8
split_gain=23658.7 65190.3 31234.4
threshold=1.26814740896225 1.3643081784248354 0.90304562449455272
decision_type=2 2 2
left_child=2 -2 -1
right_child=1 -3 -4
leaf_value=0.032722735912226644 4.1834853919347132 0.046764534612496703 -1.3421107489447441
leaf_weight=626 24 84 93
leaf_count=626 24 84 93
internal_value=0 0.966036 -0.145107
internal_weight=0 108 719
internal_count=827 108 719
is_linear=0
shrinkage=0.07


Tree=177
num_leaves=4
num_cat=0
split_feature=7 7 7
split_gain=23026.5 108898 92301.1
threshold=-0.031424829841016792 -0.28686838191432817 0.10114565195826515
decision_type=2 2 2
left_child=1 -1 -2
right_child=2 -3 -4
leaf_value=0.19203821737086402 3.3556097393035893 -2.7100242247611668 0.004274795873591546
leaf_weight=320 45 79 383
leaf_count=320 45 79 383
internal_value=0 -0.382556 0.356635
internal_weight=0 399 428
internal_count=827 399 428
is_linear=0
shrinkage=0.07


Tree=178
num_leaves=4
num_cat=0
split_feature=8 8 8
split_gain=23723 63649.3 27844.2
threshold=0.6022530496120454 0.83184549212455761 -0.69289728999137867
decision_type=2 2 2
left_child=2 -2 -1
right_child=1 -3 -4
leaf_value=0.29435746820643549 2.6106113707810121 -0.0081191187845336063 -0.71352080248711547
leaf_weight=240 57 225 305
leaf_count=240 57 225 305
internal_value=0 0.521199 -0.269684
internal_weight=0 282 545
internal_count=827 282 545
is_linear=0
shrinkage=0.07


Tree=179
num_leaves=4
num_cat=0
split_feature=8 8 9
split_gain=24054.7 69447.9 14131.8
threshold=-1.3057904243469236 -1.0016996562480924 -0.83645538151150423
decision_type=2 2 2
left_child=2 -2 -1
right_child=1 -3 -4
leaf_value=0.70866103808085124 2.1092500905664289 -0.092105935552581869 -1.2979124999485518
leaf_weight=21 79 632 95
leaf_count=21 79 632 95
internal_value=0 0.152489 -0.934653
internal_weight=0 711 116
internal_count=827 711 116
is_linear=0
shrinkage=0.07


Tree=180
num_leaves=4
num_cat=0
split_feature=8 8 9
split_gain=22727.2 121686 7824.72
threshold=-1.1801114082336424 -1.0663185715675352 -0.15560858437402611
decision_type=2 2 2
left_child=2 -2 -1
right_child=1 -3 -4
leaf_value=-0.21562872047607717 4.3169041427699009 -0.040862930390459865 -1.2439470774516828
leaf_weight=65 33 647 82
leaf_count=65 33 647 82
internal_value=0 0.170617 -0.789248
internal_weight=0 680 147
internal_count=827 680 147
is_linear=0
shrinkage=0.07


Tree=181
num_leaves=4
num_cat=0
split_feature=8 7 8
split_gain=22814.2 38223.6 34916.3
threshold=0.16759078204631808 -0.95557116941990439 -0.69289728999137867
decision_type=2 2 2
left_child=2 -2 -1
right_child=1 -3 -4
leaf_value=0.25098708241929613 -1.1325831086818989 0.73705623524768871 -0.97429104063059069
leaf_weight=240 65 305 217
leaf_count=240 65 305 217
internal_value=0 0.408606 -0.330819
internal_weight=0 370 457
internal_count=827 370 457
is_linear=0
shrinkage=0.07


Tree=182
num_leaves=4
num_cat=0
split_feature=8 8 8
split_gain=20622.8 55737 33115.8
threshold=1.1491728425025942 0.90304562449455272 1.6038507223129275
decision_type=2 2 2
left_child=1 -1 -2
right_child=2 -3 -4
leaf_value=0.036865238131235205 1.2198012944608927 -2.1965480667352679 -1.7933763885498049
leaf_weight=626 120 60 21
leaf_count=626 120 60 21
internal_value=0 -0.158477 0.77103
internal_weight=0 686 141
internal_count=827 686 141
is_linear=0
shrinkage=0.07


Tree=183
num_leaves=3
num_cat=0
split_feature=7 7
split_gain=20889.4 17539.2
threshold=-1.5632666580755454 1.9034974801116642
decision_type=2 2
left_child=-1 -2
right_child=1 -3
leaf_value=-2.1795477684338889 -0.0028304933087948043 1.8453187542007523
leaf_weight=21 780 26
leaf_count=21 780 26
internal_value=0 0.0567872
internal_weight=0 806
internal_count=827 806
is_linear=0
shrinkage=0.07


Tree=184
num_leaves=4
num_cat=0
split_feature=8 8 7
split_gain=20833.6 105109 9142.6
threshold=-1.1801114082336424 -1.0016996562480924 -0.89426471692230969
decision_type=2 2 2
left_child=2 -2 -1
right_child=1 -3 -4
leaf_value=0.21370464341508019 3.3212764282524589 -0.076487534210274502 -1.0700406821354016
leaf_weight=36 48 632 111
leaf_count=36 48 632 111
internal_value=0 0.163355 -0.755654
internal_weight=0 680 147
internal_count=827 680 147
is_linear=0
shrinkage=0.07


Tree=185
num_leaves=4
num_cat=0
split_feature=0 9 9
split_gain=13707.7 22986.4 12409.7
threshold=0.14920710309232013 0.91090252647574277 0.7520518075678112
decision_type=2 2 2
left_child=1 -1 -2
right_child=2 -3 -4
leaf_value=0.542615193595401 -0.54594708838361383 -0.66980384101771351 0.33944961916620486
leaf_weight=339 282 99 107
leaf_count=339 282 99 107
internal_value=0 0.268575 -0.302406
internal_weight=0 438 389
internal_count=827 438 389
is_linear=0
shrinkage=0.07


Tree=186
num_leaves=4
num_cat=0
split_feature=8 7 8
split_gain=20604.3 32325.3 28832.4
threshold=0.16759078204631808 -0.95557116941990439 -0.69289728999137867
decision_type=2 2 2
left_child=2 -2 -1
right_child=1 -3 -4
leaf_value=0.21430607435355586 -1.0289875600521381 0.69035988280164906 -0.89911999637080786
leaf_weight=240 65 305 217
leaf_count=240 65 305 217
internal_value=0 0.388312 -0.314389
internal_weight=0 370 457
internal_count=827 370 457
is_linear=0
shrinkage=0.07


Tree=187
num_leaves=4
num_cat=0
split_feature=8 8 9
split_gain=19172.2 83474.3 12761
threshold=-1.1854684948921201 -1.0016996562480924 0.83597338175185454
decision_type=2 2 2
left_child=2 -2 -1
right_child=1 -3 -4
leaf_value=-1.0649338658477949 2.8789486776146238 -0.065074015513911287 0.57819986668126333
leaf_weight=115 51 632 29
leaf_count=115 51 632 29
internal_value=0 0.154758 -0.734025
internal_weight=0 683 144
internal_count=827 683 144
is_linear=0
shrinkage=0.07


Tree=188
num_leaves=4
num_cat=0
split_feature=7 7 1
split_gain=20398.8 31624.9 25892.2
threshold=0.43807097541619638 0.21354081487052226 -0.81594646977245544
decision_type=2 2 2
left_child=1 -1 -2
right_child=2 -3 -4
leaf_value=-0.0087860161739747658 2.4863915384411812 -1.4797982715554987 0.27509275858290494
leaf_weight=522 30 83 192
leaf_count=522 30 83 192
internal_value=0 -0.210594 0.573917
internal_weight=0 605 222
internal_count=827 605 222
is_linear=0
shrinkage=0.07


Tree=189
num_leaves=4
num_cat=0
split_feature=8 8 8
split_gain=18534.9 42507.1 38774.1
threshold=-0.10102679952979086 1.0000000180025095e-35 -0.69289728999137867
decision_type=2 2 2
left_child=2 -2 -1
right_child=1 -3 -4
leaf_value=0.18891269154427576 3.38232025941213 0.15557352766288682 -1.2640263699284859
leaf_weight=240 21 422 144
leaf_count=240 21 422 144
internal_value=0 0.308534 -0.355939
internal_weight=0 443 384
internal_count=827 443 384
is_linear=0
shrinkage=0.07


Tree=190
num_leaves=4
num_cat=0
split_feature=7 7 7
split_gain=18373.2 141578 60117.3
threshold=0.1369077492485288 0.10114565195826515 0.21354081487052226
decision_type=2 2 2
left_child=1 -1 -2
right_child=2 -3 -4
leaf_value=0.01830628522747272 2.6302711700439456 -5.1138160800933843 0.011623952398901103
leaf_weight=444 50 28 305
leaf_count=444 50 28 305
internal_value=0 -0.286142 0.380448
internal_weight=0 472 355
internal_count=827 472 355
is_linear=0
shrinkage=0.07


Tree=191
num_leaves=4
num_cat=0
split_feature=7 7 7
split_gain=18464 238430 26758.3
threshold=-0.5164684251326489 -0.31211358347399981 -0.77165181192712018
decision_type=2 2 2
left_child=2 -2 -1
right_child=1 -3 -4
leaf_value=-0.12427034344850926 5.9143263138041782 -0.13982184658856955 -1.8444420568726283
leaf_weight=228 34 510 55
leaf_count=228 34 510 55
internal_value=0 0.238562 -0.458579
internal_weight=0 544 283
internal_count=827 544 283
is_linear=0
shrinkage=0.07


Tree=192
num_leaves=4
num_cat=0
split_feature=8 9 1
split_gain=17376.4 18489.2 14994
threshold=-1.5098215341567991 1.2760235387763341 0.53967652873185734
decision_type=2 2 2
left_child=2 -2 -1
right_child=1 -3 -4
leaf_value=-1.9296899671554568 0.2020511322867389 -0.96200080112327602 0.41771090888977058
leaf_weight=40 693 74 20
leaf_count=40 693 74 20
internal_value=0 0.0897436 -1.14722
internal_weight=0 767 60
internal_count=827 767 60
is_linear=0
shrinkage=0.07


Tree=193
num_leaves=4
num_cat=0
split_feature=7 8 7
split_gain=18283.8 37161.4 27143.9
threshold=0.43807097541619638 -1.4442170262336729 0.21354081487052226
decision_type=2 2 2
left_child=2 -2 -1
right_child=1 -3 -4
leaf_value=-0.012413180438494776 -1.7046852207712591 0.90821488084905444 -1.3752304245800859
leaf_weight=522 31 191 83
leaf_count=522 31 191 83
internal_value=0 0.54335 -0.199378
internal_weight=0 222 605
internal_count=827 222 605
is_linear=0
shrinkage=0.07


Tree=194
num_leaves=4
num_cat=0
split_feature=7 7 7
split_gain=18149.6 149660 46222
threshold=-0.13360225067034145 -0.28686838191432817 0.10114565195826515
decision_type=2 2 2
left_child=1 -1 -2
right_child=2 -3 -4
leaf_value=0.19771453466266395 1.9100660486580576 -3.885273770140667 -0.011891673351625862
leaf_weight=320 73 51 383
leaf_count=320 73 51 383
internal_value=0 -0.363559 0.29579
internal_weight=0 371 456
internal_count=827 371 456
is_linear=0
shrinkage=0.07


Tree=195
num_leaves=3
num_cat=0
split_feature=7 8
split_gain=17951.4 19768
threshold=-1.5632666580755454 0.56853848695755016
decision_type=2 2
left_child=-1 -2
right_child=1 -3
leaf_value=-2.0204721562067669 -0.2030606851053792 0.52263235245057404
leaf_weight=21 522 284
leaf_count=21 522 284
internal_value=0 0.0526426
internal_weight=0 806
internal_count=827 806
is_linear=0
shrinkage=0.07


Tree=196
num_leaves=4
num_cat=0
split_feature=7 7 8
split_gain=16710.6 72004 23168.5
threshold=-0.83806713546618117 -0.77165181192712018 -0.1463026627898216
decision_type=2 2 2
left_child=2 -2 -1
right_child=1 -3 -4
leaf_value=-1.3331166657959066 4.3141086497306826 0.044447683251193908 0.14780163312817479
leaf_weight=97 20 599 111
leaf_count=97 20 599 111
internal_value=0 0.182401 -0.542819
internal_weight=0 619 208
internal_count=827 619 208
is_linear=0
shrinkage=0.07


Tree=197
num_leaves=4
num_cat=0
split_feature=8 8 8
split_gain=14340.7 53784 28577.7
threshold=1.26814740896225 1.3643081784248354 0.90304562449455272
decision_type=2 2 2
left_child=2 -2 -1
right_child=1 -3 -4
leaf_value=0.057125099897206121 3.6745595999558773 -0.082872172817587852 -1.2579406496914485
leaf_weight=626 24 84 93
leaf_count=626 24 84 93
internal_value=0 0.752113 -0.112974
internal_weight=0 108 719
internal_count=827 108 719
is_linear=0
shrinkage=0.07


Tree=198
num_leaves=4
num_cat=0
split_feature=7 7 7
split_gain=16106.3 121839 51515.6
threshold=0.1369077492485288 0.10114565195826515 0.21354081487052226
decision_type=2 2 2
left_child=1 -1 -2
right_child=2 -3 -4
leaf_value=0.014519551528768765 2.4388628479003911 -4.7464026260375984 0.014785093554707826
leaf_weight=444 50 28 305
leaf_count=444 50 28 305
internal_value=0 -0.267908 0.356204
internal_weight=0 472 355
internal_count=827 472 355
is_linear=0
shrinkage=0.07


Tree=199
num_leaves=4
num_cat=0
split_feature=7 7 7
split_gain=16013 192922 25029.6
threshold=-0.53690390929851384 -0.31211358347399981 -0.77165181192712018
decision_type=2 2 2
left_child=2 -2 -1
right_child=1 -3 -4
leaf_value=-0.11083841754483029 5.1734895020061078 -0.12861699021052497 -1.7996187766318053
leaf_weight=228 36 510 53
leaf_count=228 36 510 53
internal_value=0 0.220972 -0.429363
internal_weight=0 546 281
internal_count=827 546 281
is_linear=0
shrinkage=0.07


Tree=200
num_leaves=4
num_cat=0
split_feature=1 9 3
split_gain=13185.5 26601.3 19415.9
threshold=0.27080504204789962 0.67327237219340785 1.0000000180025095e-35
decision_type=2 2 2
left_child=2 -2 -1
right_child=1 -3 -4
leaf_value=-0.4406481447950949 0.059016679935495968 1.8059714833070648 0.50633725693488463
leaf_weight=411 220 53 143
leaf_count=411 220 53 143
internal_value=0 0.398169 -0.19621
internal_weight=0 273 554
internal_count=827 273 554
is_linear=0
shrinkage=0.07


Tree=201
num_leaves=4
num_cat=0
split_feature=7 7 9
split_gain=16973.8 43200.2 22856.1
threshold=0.37676452291860157 0.21354081487052226 -0.56232322752985375
decision_type=2 2 2
left_child=1 -1 -2
right_child=2 -3 -4
leaf_value=-0.016608169309195432 -0.0092995082459798682 -2.1141068113974808 1.3891164205638185
leaf_weight=522 164 53 88
leaf_count=522 164 53 88
internal_value=0 -0.209943 0.479036
internal_weight=0 575 252
internal_count=827 575 252
is_linear=0
shrinkage=0.07


Tree=202
num_leaves=4
num_cat=0
split_feature=8 8 9
split_gain=14187 86696.8 21056.5
threshold=0.69834449887275707 0.83184549212455761 -0.24396323872099879
decision_type=2 2 2
left_child=2 -2 -1
right_child=1 -3 -4
leaf_value=0.30799463162482799 3.6164278186692131 -0.083363968285587106 -0.55794315631100633
leaf_weight=236 36 225 330
leaf_count=236 36 225 330
internal_value=0 0.426952 -0.196881
internal_weight=0 261 566
internal_count=827 261 566
is_linear=0
shrinkage=0.07


Tree=203
num_leaves=4
num_cat=0
split_feature=2 1 1
split_gain=11792.9 15296.6 13644.2
threshold=1.0000000180025095e-35 -1.0555274872366522 -0.95939466518205285
decision_type=2 2 2
left_child=2 -2 -1
right_child=1 -3 -4
leaf_value=-0.70170987672275975 0.76038268689381883 -0.46251539207480341 0.41226550508851328
leaf_weight=63 59 333 372
leaf_count=63 59 333 372
internal_value=0 -0.278457 0.250931
internal_weight=0 392 435
internal_count=827 392 435
is_linear=0
shrinkage=0.07


Tree=204
num_leaves=4
num_cat=0
split_feature=8 8 8
split_gain=13906.2 46288 27771.3
threshold=1.1491728425025942 0.90304562449455272 1.4088109135627749
decision_type=2 2 2
left_child=1 -1 -2
right_child=2 -3 -4
leaf_value=0.047879911531417518 1.5547134988347691 -1.9874351616104446 -0.41409441881107567
leaf_weight=626 75 60 66
leaf_count=626 75 60 66
internal_value=0 -0.130136 0.633144
internal_weight=0 686 141
internal_count=827 686 141
is_linear=0
shrinkage=0.07


Tree=205
num_leaves=4
num_cat=0
split_feature=7 7 7
split_gain=15528.5 82487.9 69707.9
threshold=-0.031424829841016792 -0.31211358347399981 0.10114565195826515
decision_type=2 2 2
left_child=1 -1 -2
right_child=2 -3 -4
leaf_value=0.19774233438709182 2.899084266026815 -2.293081236997756 -0.013343206233011837
leaf_weight=317 45 82 383
leaf_count=317 45 82 383
internal_value=0 -0.314156 0.29287
internal_weight=0 399 428
internal_count=827 399 428
is_linear=0
shrinkage=0.07


Tree=206
num_leaves=3
num_cat=0
split_feature=7 0
split_gain=15274.9 18085.9
threshold=-1.5632666580755454 0.14920710309232013
decision_type=2 2
left_child=-1 -2
right_child=1 -3
leaf_value=-1.8637724427382154 0.36486805061875927 -0.29904972532773783
leaf_weight=21 422 384
leaf_count=21 422 384
internal_value=0 0.0485598
internal_weight=0 806
internal_count=827 806
is_linear=0
shrinkage=0.07


Tree=207
num_leaves=3
num_cat=0
split_feature=7 7
split_gain=15038.5 20272.7
threshold=1.9034974801116642 1.6483140933171929
decision_type=2 2
left_child=1 -1
right_child=-2 -3
leaf_value=0.030096347921756455 1.6568254170050989 -1.5323371200783309
leaf_weight=758 26 43
leaf_count=758 26 43
internal_value=0 -0.0537796
internal_weight=0 801
internal_count=827 801
is_linear=0
shrinkage=0.07


Tree=208
num_leaves=4
num_cat=0
split_feature=7 7 7
split_gain=14300.8 106817 43881.9
threshold=0.1369077492485288 0.10114565195826515 0.21354081487052226
decision_type=2 2 2
left_child=1 -1 -2
right_child=2 -3 -4
leaf_value=0.011997808983197085 2.257815505218506 -4.4457768726348883 0.020537564717843886
leaf_weight=444 50 28 305
leaf_count=444 50 28 305
